1.924332820724580437e-02 -2.807785114527158385e-02 4.091439462214283701e-02 9.872575128623469268e-03 -4.902482010634831577e-02 -7.408805995566881963e-02 -7.289216117110614013e-02 -1.045164908811659424e-02 -3.178104027108620642e-03 7.576998713162021344e-03 -1.164599634947176970e-02 3.814918605612449554e-02 -3.424001720082232858e-02 4.669912031044745788e-03 -1.972399090654837484e-02 -3.715168644367218467e-03 3.821049421217902892e-02 4.725771289994271790e-02 -2.463995152123178017e-02 2.194667930648904267e-02 5.337582062532845659e-03 -8.702615590527962297e-02 3.181848227840165105e-02 1.969134954726994499e-02 6.948188449474049233e-02 3.412249383732926522e-02 3.222487598138432108e-02 1.400655785810164811e-02 5.499945590703689269e-02 2.745324636505575011e-02 7.544726510475752157e-02 2.137956863150020786e-02 -8.770663412546505361e-03 1.446574366858291091e-02 -3.144420306804060483e-02 7.968270887547692846e-03 1.801917793011772323e-02 3.824155035184336610e-02 -1.752960323305053844e-02 -5.397531987136498094e-02 1.525547499281566625e-02 3.704867361981648705e-02 -5.292215607446679876e-02 2.432389746397448788e-02 -1.433830089401566012e-02 6.154780034900897423e-02 -3.638328523538510856e-02 -6.177334605609762636e-02 -1.738853803623203326e-02 1.023569583989884617e-02 -6.573815408759643535e-03 8.574756713585246493e-02 1.362972945618678988e-02 -1.122859301909888245e-02 3.010555940351205759e-02 2.638050900978061546e-03 3.758393801784096211e-02 -1.449587262574084448e-03 5.076102191750824638e-02 -2.640292732886602781e-03 -3.374721093661878918e-02 -4.745703642680857738e-03 -2.418127018940345943e-02 3.938268849998183274e-02 -6.940931737595776307e-02 -3.743742901584238419e-02 -1.455159061758705581e-02 1.611310183361689199e-02 -8.476831500038113990e-03 -3.997068644224050643e-02 6.502414119481778054e-02 2.676268426242736642e-02 -6.563207182344460433e-03 -4.325578164622782135e-02 -4.548588205353069902e-02 -9.315137695721649805e-03 1.990892546679733088e-02 -4.594073998399166893e-03 1.302486743598658438e-02 3.907008212163110006e-02 -5.920961278730054421e-03 -4.054074880778977923e-03 -3.334474714873003620e-02 6.590380099150419061e-04 -1.365930119621558067e-02 -3.226110060221630549e-02 -2.951901804212220953e-02 1.678232889303834033e-02 9.775066619960501996e-03 2.442068866986378886e-02 -1.552543921286943067e-02 3.917299522215362401e-02 -1.274787036259999833e-02 -1.343433465529767293e-02 6.198983232404368243e-04 -1.558313512642634652e-02 1.057589909039134864e-02 1.412318095875411336e-02 -6.122035717500982910e-02 1.869399648014594822e-02 5.240834772323993591e-03 -1.575740986764537568e-02 -7.089692983421976014e-02 -8.187229461082581872e-02 -4.213515725883558438e-02 -2.280691241790805748e-02 -3.773538448662070496e-03 1.946495270878372593e-03 1.203289032801224505e-02 -2.710341617351722920e-03 5.078633885842184087e-02 -4.068845169620642632e-02 4.652319384678187814e-02 4.994953313406245293e-02 3.465529385309126797e-02 -2.757748376237156851e-02 -3.567952181189081029e-02 4.456279143212047572e-02 1.300414095839127343e-02 3.687064600238086631e-02 2.794386585539868160e-03 3.525770047868653084e-02 2.745644318867782041e-02 -5.341271638693249196e-02 3.639070782374050766e-02 -6.252957482120787003e-02 1.430122087996994230e-02 2.001080325572994478e-02 -3.027304449585078300e-02 5.128420319172775910e-02 1.157612027708217715e-02 2.384464844643456941e-02 9.806775521325672429e-02 1.212728781524307319e-02 -1.382375439867740072e-02 1.428502357283442312e-02 -2.358895665955367330e-02 6.734598871258957835e-03 2.999335550274259340e-02 3.976987250707266636e-02 -2.121520425560250930e-02 -5.250408448051267774e-02 -1.803940076748374727e-02 -1.651095730714976020e-02 5.481916364328367694e-03 1.008593474541913740e-02 -1.056552424232026950e-02 4.740560608730631786e-02 3.800426478000449443e-02 5.343600251874242035e-02
4.297265378528742491e-02 -4.435354132916337518e-03 1.240942721441230681e-04 -1.659755202354058767e-02 2.138529239504374097e-02 -2.836613207301097450e-02 -3.373475218847943324e-02 2.945422645360201361e-02 -3.000755521078096039e-02 -2.656926127076454647e-02 2.834724911142152276e-02 -1.129987412034607133e-02 1.665363297341817400e-02 -3.593333123880820303e-03 3.776352032685265786e-02 -5.185295553767475113e-02 -2.717001853376022069e-02 1.582737864279119757e-04 -2.427564212515186115e-02 -2.660485846974160531e-02 2.148594246932416033e-02 -9.444758120363246426e-03 -1.278055673884548153e-02 -7.040262312558257310e-03 -7.915673058589976774e-02 4.877059934675207625e-02 1.347942410408726685e-02 5.274326259680253703e-02 3.481221712128456519e-02 -2.303720718351432578e-02 4.607962983066846629e-04 2.094145040978080685e-02 -5.296241503637569292e-02 -3.316643428776264169e-02 1.512077074055369862e-02 6.300128544945536070e-03 7.668621065478854748e-02 -5.381098964169560989e-02 2.114067945124905451e-02 3.507639573677379802e-02 6.185130298811716311e-03 -4.352942362466346443e-02 -4.914281424202150694e-02 -7.971773004346528052e-03 3.220710151505590951e-02 -3.730386811685132420e-02 2.978747739944769338e-02 1.995556339969374593e-02 1.745062975267322111e-02 -1.638626919856783770e-02 -3.059270521941756180e-02 -5.945434350771059556e-02 4.419101003541492378e-02 -6.388943563750593135e-02 5.990298497201323319e-03 6.404863687775401958e-03 -3.693627555961822434e-02 1.939228452738822953e-02 -4.084425378638781995e-02 -8.459376856695476066e-03 -5.791980564422629513e-02 3.163280488507821953e-02 1.152040663015569191e-02 -1.256042166626160535e-02 1.937317911180311270e-02 5.523027475272981879e-02 -1.642686145961042357e-02 -5.891696805167183359e-02 -4.439299397129481059e-03 7.326447327753720252e-04 1.666229565039834687e-02 -5.908212465030777266e-02 -1.357355774743950090e-02 -1.042199673921428808e-02 -4.483482052256974187e-02 -4.490005033805514328e-02 1.166456072171777629e-03 -2.732816688086782408e-02 5.335578079993241046e-02 -4.431407701944193797e-03 1.076796109016899330e-03 -5.647752325415296946e-03 -1.763170406410140972e-02 3.047223065999851710e-02 -2.405846203980959580e-02 1.244081173356906093e-02 -6.000738520457805231e-02 -6.472906246856794180e-03 4.500931392496120703e-02 -3.365382470067438542e-02 2.302988260180294851e-04 1.487774021979252487e-02 -2.452078753078460599e-02 1.184076012235107944e-02 1.828482212839674034e-02 -9.947970295275831987e-03 3.113604143218268259e-03 -1.465401731636953482e-02 1.046949901696754906e-02 -1.253798723812363583e-02 5.129222105097468176e-02 4.870979239640085834e-02 -2.747961045708385841e-02 -2.650556317044814800e-02 2.694597807466830863e-02 2.653041120878948597e-02 4.615856317756485833e-02 2.552524726234666266e-02 3.921904173715292513e-02 2.231025725952991492e-02 5.810423677906851464e-02 -1.018607112818985250e-02 -1.169674485401379048e-02 -2.423621173517213900e-02 1.914283847498780139e-02 -3.838111885282103480e-02 1.522620470949425341e-02 2.475463922025862573e-02 -3.109142975206595234e-03 4.578156606244294241e-02 4.825641991667113662e-02 3.071186255761428150e-03 -9.508887657296969179e-03 -1.358497296726820917e-04 3.343902522957725720e-02 6.004671673033565131e-03 2.984567349985471629e-02 1.050476788848846328e-02 3.212539727285000646e-02 3.947008980922891985e-02 2.677284324768195584e-02 2.227983749054901833e-02 -1.856759752965417634e-02 5.534612983879445142e-02 3.631290830412844256e-02 4.352879320301766830e-02 2.345935195489628339e-02 9.950919281079856349e-03 -2.191203610697031040e-02 -3.124043564827684583e-02 -2.186631459604275116e-02 -6.883720377666593948e-02 -1.994778572127206551e-02 4.199206675325561564e-03 -3.539470817267787589e-02 4.418549191796734138e-02 -1.269249069820562598e-02 1.237688299808040009e-02 -2.895928872983375996e-03 9.521341948465232574e-02
-2.968084781130509234e-02 -3.142124158998717016e-03 6.426534769466403594e-04 -2.070447901801359195e-02 -2.563018411972080648e-02 -3.594496458074418477e-02 4.995491426266802232e-02 3.037099421360846263e-02 2.821501164941548397e-03 2.706702617078205267e-02 8.093516592686098368e-03 5.299938226890408069e-03 5.090295861746740175e-02 3.445791468743950037e-03 2.029443658834880967e-02 1.063576536540407173e-02 1.788268668001077866e-02 -5.188088522385581047e-02 7.602320839554130294e-02 -3.015550883294752793e-02 1.084411012580837469e-02 3.461376148347571763e-02 -1.061308915701346910e-02 1.397654982506351881e-02 -8.394205882655876583e-02 -2.728195641235680105e-02 4.055435477351355955e-02 9.823697470059393477e-02 -3.201574639062279570e-02 -5.252439253738688113e-02 -2.583925141811823506e-02 -5.402316198080986398e-03 1.839799066364187705e-02 -1.942567529345895147e-02 1.840375051794033295e-02 -5.149029582612169725e-03 -2.554463975632838280e-03 -1.814371409705787738e-02 -8.564216520461601090e-02 2.917818170544278500e-02 -5.689031494262943717e-03 -4.782433621699768919e-03 -1.326256113980651095e-02 -2.885465274638748454e-02 -1.258950908729319744e-02 -6.496081551995486203e-02 -3.700800214823025958e-02 2.080499821278632144e-02 -1.984215211208854857e-02 1.180144264857038716e-02 -6.014059741456100928e-03 2.338937507885265749e-02 -1.190732605552580550e-02 -1.106676628852715748e-02 2.406562259235803941e-02 8.393049368696973642e-03 -3.900417254837570957e-02 -1.332246527302098117e-02 -2.352857053420035274e-02 2.248350492288803473e-02 -3.894669640007257516e-02 2.323531183948632228e-02 1.142803597489883832e-02 -2.874617071618762107e-02 2.007089368944526414e-02 -1.458847343127786696e-02 1.377518562862149569e-02 2.781746659905736177e-02 -3.419610491220762688e-02 3.596785545731804451e-02 -3.388844998269217867e-02 1.804357892479257520e-03 1.081320015990911917e-02 -3.193172475165959034e-02 3.252287600452870991e-02 4.099072436227332167e-02 -4.663864408982599380e-02 1.055773308638897727e-02 -1.018805524458995908e-02 3.922747705975239418e-02 1.031355126627473383e-02 5.809514111574242551e-02 -6.053338912959645851e-02 -1.253658037913217040e-02 1.980484870290663557e-02 -1.135796701269195692e-02 2.180841884484678930e-02 2.894410654984705400e-02 -6.141089621912757673e-02 5.060763960611913692e-02 1.431537081491610422e-03 1.306866300278989798e-02 2.867665655753272314e-02 1.826052771710252182e-02 -1.551561328817418518e-02 4.568245288935737780e-02 -7.739412068146701851e-02 -6.854941266695903888e-03 2.771139260103127125e-02 -2.626356704618974108e-02 5.615687142927691666e-02 7.641339902059481395e-03 9.649985799356023894e-03 -2.494941395868583572e-02 3.028272277855845185e-02 -3.957185040278340948e-02 4.564845379909707873e-02 2.236129338582825560e-02 2.560184074843752100e-02 1.628521236852273693e-02 -3.224233853387778459e-02 3.007714197647313320e-02 -2.256976872287901406e-02 3.226935995694207859e-02 -1.881623593358280888e-02 -9.588227013762169737e-03 5.174214102619121430e-02 -9.179542454422872765e-04 -3.362239748146212542e-02 -7.340508355445393533e-03 -2.550061881874557401e-02 -1.404713401525812914e-02 4.598929848514683033e-02 -3.193834022447589183e-02 -3.997827603950756398e-03 -1.767353604224359762e-02 5.299936085663951857e-02 3.373814146815329318e-02 3.247504061927486418e-02 -2.988469146588143555e-02 2.657682005647201903e-02 -2.924627282314374091e-02 -3.170674484991353043e-02 -1.907292728623882902e-03 4.214965628868499146e-03 1.097796914909561147e-02 5.508135859221265085e-02 2.212412181215768145e-02 -2.948382132706312345e-03 -4.707280571344942682e-02 1.893149270293633876e-02 2.162560354476191632e-02 3.026553136897596526e-03 2.541761673962309939e-02 -4.660188567563835343e-02 -2.269394503210327499e-02 -1.166949636778663590e-02 2.228656685866747133e-05 -1.753478804970311569e-02 2.113108160882479561e-02
8.423771813801128085e-04 1.476440865811418958e-03 2.369648353693610404e-02 -6.108698514739269170e-02 8.758114954445968010e-04 8.612961753155927089e-03 -1.034817104434366045e-02 -6.421777223760324893e-02 -3.189796976654639404e-02 1.068767012724306138e-02 -1.291159369724442611e-02 -5.556158038985323233e-02 3.816944890696774215e-03 -6.013951682308730368e-02 1.824668275229963943e-02 -8.429582708961892365e-03 -4.720121084246529236e-02 -1.754428085028889375e-02 -3.244080907657573287e-02 -1.118224750237477826e-02 -1.540052203904800424e-02 -4.840652288982170287e-02 -2.824842727595237857e-02 1.609304463195425014e-02 2.005506775447418039e-02 5.464706992901900012e-02 -1.958175410342510511e-02 -3.263348938702849509e-03 7.785845908517872267e-04 -2.528516981747548284e-02 -1.643010429197926635e-03 -4.908794767147139221e-02 6.437196990423171838e-02 3.068506824062111962e-02 2.392468382082138870e-02 -2.602277794615978634e-02 5.062425398243525915e-02 2.230031761144852728e-02 2.515817118250746054e-02 5.320652657786955481e-02 1.161499828814607262e-02 1.475302333666208112e-03 2.511286361014218246e-02 3.047254881785396025e-02 7.838794851696214913e-03 -5.280898472197853577e-02 -2.193346104996765980e-02 2.160620194645668929e-02 -1.689276506381389570e-02 -4.162462655047731441e-02 -2.457424004681870930e-02 -6.213570879141860209e-02 4.303456042377220431e-02 3.756788486328745125e-03 5.692579796118713183e-03 -7.562939188478224641e-03 -1.508615337204442970e-02 -8.286028308215173666e-02 1.588347089052289177e-02 7.049073539297433418e-03 2.127202159347297075e-02 2.692937379841346332e-02 1.990026491739008835e-02 4.450794666802056904e-02 2.309535628429298590e-02 6.895116333462043834e-02 1.415132276793132013e-02 5.619986364692924202e-02 2.005061577490850622e-02 -1.726325951377463350e-02 -6.362960794865528402e-02 -5.476594599491890585e-03 -2.489595031758156177e-02 -3.361425743533007909e-02 5.397394085282889928e-03 -4.700637085709515745e-02 1.333583802544720080e-03 1.719815491595945781e-02 1.089464809312241760e-02 -2.498526892784948966e-02 -2.495453831102615802e-02 -9.048144451202780325e-02 -6.892917745391398919e-03 7.263188292342148168e-03 -1.357347990385055457e-02 1.410012384061530913e-02 1.570667439927362144e-02 -2.264213842933701301e-02 -1.047079762046012122e-02 -6.094539236800964634e-03 -2.877139932527021313e-02 1.198483119711166341e-02 1.339575003519363934e-02 -7.873305729527260363e-03 -4.368242250409383465e-02 -1.573307330355043152e-02 -2.788041370762293220e-02 -3.351800272007846634e-03 3.686021412802307790e-03 -4.829063519477311273e-02 1.500301661252240008e-02 2.115597125535309021e-03 4.659378234934609029e-04 1.294468840026847742e-02 -2.601744204633238324e-03 -4.517245717477290368e-02 1.224225348548729254e-02 -2.195857972722852630e-02 -1.486907645703721033e-02 4.273411685510505181e-02 1.948347566614102438e-03 -5.252097765669170443e-02 1.473275912713132782e-02 7.599837033461048774e-02 -1.277294074413365572e-02 5.239428606014537998e-03 2.385627571959740567e-02 8.180168541537361643e-03 1.801432181240768607e-02 3.736223859921869450e-02 -5.062350124530881450e-03 -1.984283743319276497e-02 1.646313579285809889e-02 1.842896416115953617e-02 3.307444380313344368e-02 -2.268877365106305305e-02 -1.388953011494170695e-03 3.135703635624065289e-02 2.198807718392014471e-02 8.175371561524263572e-03 -1.940861024518939285e-02 7.360774596528939576e-03 -1.953966774346222943e-02 -5.135774656501701507e-02 2.646470535107904240e-02 -2.231928337568104756e-03 5.450139747943190394e-02 -8.453474788147596897e-02 -5.532919945263882651e-03 2.519232852717728094e-02 -2.752070255462714388e-02 -3.976812157055006208e-02 3.822667127152030997e-02 5.841719429409080594e-02 2.839697205785832569e-04 2.864090125268731538e-02 -1.337634223807456814e-02 -2.343425712839404887e-02 -3.280546460016452170e-02 3.246776288356823664e-02
2.456270170590549914e-03 -1.377812660568876121e-02 -4.462919830441805513e-02 4.303826325012042459e-02 -2.120264915926225666e-02 -1.337847926679117290e-02 -5.589417965745061695e-02 5.209890471653710886e-02 -3.731558953221383174e-02 1.949429958118772260e-02 5.394214981645369805e-02 -5.923193939671946018e-02 1.947094171879918539e-02 2.491438972666618762e-02 -5.037480535652311825e-02 -1.685195060242951001e-02 1.653668225960073374e-02 8.391662227320810866e-03 -1.003215892924559302e-02 -5.059183648793573636e-03 -7.725556782489521879e-02 9.665141107297305079e-03 3.168140748134802565e-02 -4.884741540469580978e-02 -3.670365465809743294e-02 4.619047338231858923e-02 8.675625091578301196e-02 -3.920720097018153862e-03 4.660693465584477696e-02 -1.269942973640799354e-02 3.868207344364735754e-03 4.437750765422403265e-03 5.204227360192151958e-02 -4.056361461517582478e-03 -7.880913525321591590e-03 -4.466941024141454081e-02 3.852672679596116229e-02 -2.639688628071610102e-02 -1.767004560289903257e-04 -5.984626375424757783e-02 -1.255064179608640293e-02 3.948640602760132567e-02 1.479239594711074038e-02 3.286016206784543158e-03 -6.408037475055369716e-04 -5.381630981501954458e-02 -2.515510243859555781e-02 2.228223000337109516e-02 8.745538443721267985e-02 2.862073910379126299e-02 2.658731044866445570e-02 -1.988196350548272762e-02 -4.764526785159890754e-02 -1.483141666005327597e-02 3.407925580838232216e-02 1.312196454156221680e-02 -8.822778965982639235e-03 -7.039119468231156036e-03 6.900689327169522375e-04 -1.564795350893239193e-02 7.337285506792376455e-02 6.557083013108132644e-03 2.497574089866599900e-02 -2.843137992360176072e-02 -1.459990794460356775e-02 -6.029821204309204069e-02 -2.109540692173138970e-02 2.485156546891118413e-03 -2.343949905431203656e-02 -3.793332508432661378e-03 -3.082591081445761050e-02 5.297860809593331333e-02 -2.241219612099597594e-02 2.351113166729492526e-02 7.017790392190433046e-02 2.167155977977000547e-02 -5.156394480860166524e-02 1.043555517716673181e-03 4.100636070686352469e-02 -3.577920213607332402e-03 -1.922135455744273039e-02 4.001854383645836455e-02 -3.391362765072288704e-02 9.415481874100547002e-03 -3.548469208521448648e-02 -2.092273897035486566e-02 -8.391955964056113659e-02 2.655085966822824228e-03 1.456625423444820287e-02 3.190828371988178175e-02 -3.138811713999276054e-02 4.163953739223980738e-02 -2.861714215806903869e-02 8.806146939468498247e-02 -3.391786222104989368e-02 2.157676083362552663e-02 4.508235512590402089e-02 1.233473164056432363e-02 -7.403360044385259679e-03 -3.284688367283110366e-02 -5.356815406132907353e-02 -1.110044049925126668e-02 -3.914808968582390858e-02 -3.218105540245867757e-02 -4.830353914155156858e-02 4.559807808071988586e-03 -3.046829293535225150e-02 -4.471096616211103769e-03 8.567568322536011152e-03 -4.857570936773587811e-02 6.054550955568615417e-02 1.400788780158635297e-02 -3.435599570915964102e-02 5.093139654662780583e-03 2.625979926309191317e-02 -5.896457926245177172e-02 4.440194918679184893e-02 1.218783678603984179e-03 -1.974804123065159248e-02 1.322578465936094690e-02 -1.627781720899804108e-02 4.449992770514066970e-02 1.531746015250937468e-02 -2.593890352799412685e-02 1.583974680272757021e-02 -6.871239569129115876e-02 -3.669783120273084620e-02 4.133526149043209585e-02 -1.165459281543990144e-02 5.417766730184265384e-02 4.977456972252127659e-02 -2.395141054820437362e-02 -3.527464493520299921e-02 3.804253995973128771e-02 4.052484159357842841e-02 2.002922874872557421e-02 1.455470663456169544e-02 4.668346466990350857e-02 2.716623609444273734e-03 2.765900855436692271e-02 4.060691439283652809e-02 2.339746997005450260e-02 1.350325568248424493e-02 -4.570152229813623235e-02 -2.119314498734840846e-02 2.949266869603391072e-02 -2.217856327605757794e-02 -2.540642127484787904e-02 -6.403925979491854360e-03 -1.292878458049149734e-02
3.805478535509379534e-02 2.433865642030461074e-02 5.950115130963418153e-02 -3.230346540752843110e-02 -7.004792716328805957e-02 4.572224335263344597e-02 -1.792801015573744668e-04 1.485155247325531912e-02 3.530136409522802859e-02 -2.292227889188457740e-02 2.860335866084208825e-02 8.492217813927236195e-03 -1.088003169361708745e-02 -1.623891221205404217e-02 1.612476513692658736e-02 5.128451675028166540e-02 2.014424166199113228e-02 8.130707675427213330e-03 -1.177048932211303273e-02 1.306315025616099947e-02 -2.745109659365191704e-02 5.280311369140519573e-02 -2.649574179925964779e-02 -3.335105682078300798e-02 1.592885544779185092e-02 -5.750228801281230540e-02 5.285711100615637925e-02 3.664566219093880889e-02 3.526033104884946680e-03 -1.122464019058566458e-02 -6.924539250937035428e-03 -2.292129559910597789e-02 2.013160217798206503e-02 7.738723323579333770e-03 5.663329107025411729e-02 -1.219093530032791008e-02 3.314065765394868385e-02 -3.879734766262946805e-02 -5.337031100178928067e-02 9.463379956916833161e-03 -2.853018715778472825e-02 4.048157138588938386e-02 8.284787886658496678e-03 1.547684290275027491e-02 8.567037528356649667e-03 -1.183993188222628133e-02 3.339022384583494735e-02 -1.092186704766187622e-01 1.093530894314854052e-03 -6.889455386194288933e-02 -3.010897155181717962e-03 1.545707673865055407e-02 -2.415766777547429314e-02 -2.794754815961193045e-02 1.216006734555652100e-02 -1.546845959953452483e-02 1.161506924125310473e-02 3.097401658335960720e-02 5.718236701445913311e-03 1.943958129224375095e-02 2.132854357733354820e-04 -2.881974076311183755e-02 1.690640528059613248e-02 -2.348078476874876364e-02 -4.651959168140150022e-03 3.479597507252261274e-02 1.975166928006043959e-02 1.547204381053666686e-02 -4.078684715441607822e-02 -3.016159766153813510e-02 2.239572871724921505e-02 5.349520419440504521e-02 -2.010698946422525071e-02 1.311140260751189656e-03 3.907347881098002795e-02 -4.983482004565402412e-02 -1.653203559830776839e-02 -7.171292019449023239e-03 1.585838749737859821e-02 -6.539360851676423447e-02 8.309353324459698917e-03 -2.146032555169859884e-02 1.068513656906925312e-02 -2.147439975509074788e-04 -6.853180659430480222e-03 6.768099123077232944e-03 1.125396546374929016e-02 -2.139427993482991008e-02 4.861791544145911692e-02 -1.901783220452857998e-02 7.546069411599726391e-03 7.354424758262417816e-02 3.345009719714740759e-02 -1.681007696242080296e-02 2.904574262789912445e-02 3.399606371371372698e-02 3.748489960666262499e-02 -1.755811095561233539e-03 7.302980596970687875e-03 -8.976471267213004951e-03 2.231127070686035954e-02 2.860009577982806223e-02 -1.883043046243303934e-03 -4.257305588614319902e-02 -8.203293629561730915e-02 2.771867240703524901e-02 1.751992111913725989e-02 6.411440281680799713e-02 -1.469763375353866190e-02 3.805494466628497191e-02 -2.820131623963524625e-02 -7.358537466534919268e-03 -5.853190971602414278e-02 -4.515192400314316234e-02 4.838495377370824468e-02 7.507846959235288387e-02 2.573947965184077494e-02 -7.905380430869503317e-03 -3.897882490817417001e-02 2.519195642030058052e-02 -5.663953618265524237e-02 -3.338839097857772276e-02 -9.280922528474534142e-04 5.246515032594418343e-02 9.290389123425887158e-03 5.788360908777855258e-03 1.579952814347964501e-02 4.387743158034657781e-02 4.447946965585789642e-02 -3.778411801300442241e-02 3.173032765225063806e-02 -4.197623900017365909e-04 8.712667137430447559e-03 3.167143877527487175e-03 2.960304788303569704e-02 -1.051591688541598374e-02 3.822135680049661144e-02 -9.255235109073880681e-03 3.010214957850412126e-02 3.461560061521081616e-02 4.784560700646611764e-02 4.358510804788837123e-02 -7.776714159068872333e-03 6.994585320703203268e-02 -1.242911141138092201e-02 2.426065681045710271e-02 -1.778540368445977616e-04 5.369869186963555779e-02 -1.585816723544071494e-02 2.617707634946103441e-03
-4.252945052152184297e-02 4.861778708445757546e-02 -2.302405032215178518e-02 3.562448551566691629e-02 -6.631309302578367038e-02 1.828633808908779234e-03 5.625002227296289903e-02 -3.131996245708142806e-03 2.965498839436914169e-02 6.000813740549235109e-02 -3.810370113866868441e-02 -5.237530830488073066e-03 -3.580091545549683035e-02 -2.120597621644798939e-02 -1.718574093278852147e-02 -5.856016816060377606e-03 5.568740850635046924e-02 -1.695230889054943901e-02 6.075549003128418585e-02 -1.040132014641526395e-02 -3.648722237922582406e-02 2.455589658514716923e-03 -3.128242601383626753e-02 1.509728869454386637e-03 6.178187433865871270e-02 1.942494392043822918e-02 -1.602816873641136827e-02 2.451538836300683720e-03 -1.358672345036299189e-02 2.534525453305849080e-02 7.248729531433079076e-02 1.163271824954603857e-02 4.409288222387460626e-02 -8.381615100514041780e-03 -1.475130537903527770e-03 1.177473081830878940e-02 1.297230268006096014e-04 -1.941927868230024223e-02 1.836036424732069572e-02 2.110196190297938812e-02 4.119340579615889814e-02 -4.998367851032937959e-02 4.922284091611386220e-02 -1.958388614421027740e-02 2.397959534374639531e-02 -2.450316689577661938e-02 3.152706657337701977e-03 2.566951378230055564e-02 -9.362184564465357225e-03 2.053301618529478761e-02 -3.792490016593037111e-02 2.211788472665010205e-02 -4.753165945438887936e-03 3.512069367660498875e-02 -3.602393021917935784e-02 4.234498939188939548e-02 -1.862959205710163629e-02 -3.887562286600258765e-02 -1.835479523512127675e-02 5.427496119294730748e-03 -1.489912996692165786e-02 -3.046262089767129769e-02 1.591945500919236464e-02 1.693980027257032187e-02 -2.548274281211222389e-02 2.214438439521539473e-02 7.737815029139799398e-03 1.518739365236456730e-02 7.253584306994146670e-03 8.142187884702252465e-02 -2.275099448943872921e-02 -2.808718664684097671e-02 -9.998832423790173993e-03 -3.993154045594664997e-02 -2.180778654595589075e-03 -3.052661958153651475e-02 4.363988446017033618e-02 -7.155546111969632306e-02 5.644725685565041761e-04 4.614358858970559613e-02 2.908685695317521358e-02 2.107361727681559063e-02 -9.266176966322590622e-03 3.161633473537886919e-04 -3.407449775652863014e-03 -3.340048508133297567e-02 1.706560972919921038e-02 3.700692583479770620e-02 -3.789151094943123133e-02 -5.066638298082686009e-02 -3.734270475354577179e-02 -6.866813100868153497e-02 -3.236649437911877369e-02 3.255974836858918642e-02 -3.225286697638209132e-02 3.672483859601587131e-02 -1.490473030677436604e-02 -2.069587970845247066e-02 3.321606183363032955e-02 -4.182573113633924339e-02 -1.484126878527122599e-02 -8.568058212882376581e-03 3.210880907966253556e-03 5.852718437555277237e-02 -6.944030721082997473e-03 -1.573905300080983422e-02 -3.459417400375525142e-02 -1.716780585876578544e-02 1.254938944247020217e-02 3.872712583168051118e-03 -2.461214968151504909e-02 9.013828011843093985e-03 1.827790329140261544e-02 -9.325049668131812214e-03 1.926666896856988123e-02 1.239234397987446813e-02 -2.819700091726377866e-02 -2.697986338098897624e-02 9.679779766732168542e-03 8.349724251581713136e-03 4.119917403541971390e-02 1.161030144789403432e-02 4.932437981420107614e-02 1.993581661314700049e-02 -4.997606497868348208e-02 -1.379579173932406547e-02 5.597883324777317565e-02 1.869073112788103078e-02 -3.723792391014397324e-02 -1.104267162683899087e-02 1.104807020240795856e-02 -7.245546988093673133e-03 1.715658754201818820e-02 3.167182562897984111e-02 -5.831799897508361391e-02 8.351366548027234311e-04 3.149129112870713981e-02 -6.366266768813890788e-03 -9.390733575901921704e-04 2.922710452209909340e-02 -1.089542525679836581e-02 1.043185635702522929e-01 3.493326825113175077e-02 4.170447467751504933e-02 2.551138971520112726e-03 9.913664461517162144e-03 1.340191878924474819e-02 7.580508652711849538e-02 -5.368997484436718870e-02 1.070576890256703245e-02
1.488292665047612684e-03 -2.041834487510328644e-02 2.071665797678224133e-02 5.831681715950847583e-02 4.368838514619623713e-03 1.224296690859818940e-03 2.058528769612657378e-02 2.081656394147197997e-02 -3.254897953736557437e-02 6.205798994789061412e-02 4.197395761287773738e-03 -1.464898603182297233e-02 -4.355329562056419607e-02 3.158897815491092803e-02 6.773663273172317312e-03 7.744907853771323264e-03 4.149849769995667126e-02 2.867230957814341161e-02 2.393001697036284056e-02 3.951675967977184498e-03 -3.412320438035842951e-02 -3.335196157102402609e-02 2.721229121569797987e-02 4.837807109259333743e-03 5.124726063136056733e-03 -1.942227954760566977e-02 2.562505252424200977e-02 -1.088146376287721546e-02 7.113773396756047085e-02 -3.038034057170398150e-02 1.194681164990236619e-02 4.300399551472610521e-02 -3.028692505155760467e-02 -1.237554674773098419e-02 -1.994083753588950930e-02 -2.490220791920726151e-02 -3.752011649278658156e-02 -2.776770333584254249e-02 4.920397044970652167e-02 -5.562471511010797301e-03 6.425479415817323282e-04 -5.411419586635349450e-03 -1.911889632351279969e-02 -8.402199285401411658e-03 1.886000927244049427e-02 -4.784990531351023674e-02 -1.794256570531365877e-02 2.517706715273389587e-02 -5.204590537953591306e-02 -2.395152028409283304e-02 -1.547923914954040144e-02 2.409437171764922461e-02 4.844688221454072907e-02 7.082711238100311384e-03 2.448044817942863702e-02 4.206413865742322788e-02 1.436222528760913199e-02 -4.584081582717226301e-03 -6.928276667519123883e-03 3.748750343386916817e-02 -2.684560581222796699e-02 8.341492414976441061e-03 1.916735154893904960e-02 2.683224282672344932e-02 -4.534597684133202800e-02 7.860291094207759802e-03 3.327125347244550609e-03 -1.238685084490921164e-02 1.595259692838658927e-02 -3.842754281807248744e-04 2.722473669613041311e-02 -7.415781764496584723e-03 -6.645724858987642203e-02 -5.867987985527808176e-02 -2.479863243109622223e-02 -3.169027228207807467e-02 -3.856574289723527227e-02 -2.213775993894795402e-02 -2.332673593736339646e-02 3.631748102817239365e-02 5.325020391897981181e-02 -1.550554574458378951e-02 -1.253083948748907883e-02 -1.212610062934263086e-03 -9.621816611325191906e-03 -3.727733954013207063e-02 6.388290208636741851e-02 -1.389638903802295922e-03 -2.171808556721694858e-02 1.075913015562070946e-02 -4.657058247294528115e-03 4.114138542158019690e-02 4.966256496965978928e-02 -1.891625985382490091e-02 1.420166013215543380e-02 4.178086616777645229e-02 -1.201889412999423631e-02 -3.848470803134935829e-03 -4.827739333443139408e-02 -5.026928722259083049e-02 1.380856399674205287e-02 3.249452123628109035e-02 -6.014560430997763218e-02 3.853043834721861516e-02 -1.950372854732336861e-02 2.204401823452266027e-02 3.183980893879605895e-02 1.469599479859606643e-02 -1.572417628801025397e-02 -2.041239907644278040e-02 -2.475294137814994938e-03 5.627056776546210219e-03 -7.592064794369521308e-02 -2.025777835678081382e-02 -8.366694388922110703e-03 2.556612745924738070e-02 2.250826707991274503e-02 7.430688386733617923e-02 3.019688301863234295e-02 -6.038135440129774323e-02 -2.830269246590432289e-02 -2.971858982940901728e-02 -1.352826158846160733e-02 5.476389397262757669e-02 -2.609999764181565249e-02 2.465087741985775432e-02 -3.153916115585329166e-02 8.529124689726326480e-02 4.262678738556267832e-02 -1.631495768796859328e-02 1.899151275553226251e-03 4.568952781859696166e-02 -1.025828754709982339e-02 -1.518386720484223365e-02 -1.872601841247980778e-02 -1.469534040446398605e-02 8.230578679402342224e-03 2.311326750410684638e-02 5.670599917188496458e-02 3.445955121930663334e-02 1.458890774857664330e-02 4.253395939785707680e-02 -2.563421946450749472e-02 7.091986951833002817e-02 -1.000795203903007483e-02 5.445258400435520896e-02 -2.003425373233721010e-02 -2.039449773189816115e-02 1.080570674253234116e-02 -5.186389040816664214e-02
-4.790479715298315289e-02 1.394230094426053036e-02 1.886351846847528170e-03 2.676102226030308007e-02 4.961329564258429997e-02 2.487864334903460567e-02 3.409754540065979694e-02 -2.749590531718254169e-03 3.320074763919658722e-02 -4.331261609530157736e-02 -7.252063269700047277e-02 -4.334737803212849322e-02 -2.440727275615008074e-02 3.932443949724982041e-02 -1.413808657977557760e-02 -2.346393448201025342e-02 2.793352908928221218e-02 -3.788792292532475181e-02 -1.635210150829830705e-02 6.129488408019091034e-02 8.078826619987161325e-03 2.092999763495214868e-02 1.207437052619512834e-02 4.177670275012283774e-02 3.479548009668396134e-03 -4.344439462112102690e-02 5.295747986305204998e-03 1.736869076995842948e-02 6.252133680767863085e-03 -3.862679637563370266e-02 -2.357119003470570240e-02 1.201161301266531582e-02 -2.009752239785450676e-03 5.984299171893001784e-02 1.433764001120409887e-02 3.450793211760755375e-02 5.357475229686942814e-02 -2.570011173081663235e-03 -2.119624726669959436e-02 -1.647137042911576629e-02 2.407493280296940999e-02 2.137289998301068750e-02 -1.854798716358656979e-02 -4.025040637033643412e-03 4.292617390037988673e-02 1.625717386625508826e-02 7.726052250619739985e-03 3.263954726207599077e-02 1.229465077448691282e-02 4.713914695912218428e-02 -2.610630022718104376e-02 2.345942309255529684e-02 6.100683625537885353e-03 4.462553748674001619e-02 -8.827272210987823289e-03 3.837928587217481063e-02 3.682239403764763636e-02 -1.951991435130656996e-02 4.023201858277284521e-02 -5.034820071059006169e-02 -1.869969957232196084e-02 2.509023895014301370e-02 -4.813930022181451412e-02 5.747691871051988782e-02 5.715341546608686783e-03 -5.633589937669171432e-02 -4.790487985508135038e-02 4.038056596732933837e-03 -5.922391930830386841e-02 -9.498700271108179854e-03 1.186427070498540133e-02 3.148627838697331399e-02 -4.733431149080550432e-02 -1.232506012364058788e-02 7.692503236760958769e-03 7.666200077734312834e-02 3.765141302835726261e-02 7.957754408202311405e-03 3.123677125994858694e-02 -4.748967081848909366e-02 5.288281449287515062e-02 5.935015474396510005e-02 -1.898012859971158137e-02 1.425628170889435727e-02 -5.606735359117924478e-02 5.193794373487285732e-02 -1.253023592083536003e-02 6.738178754077044780e-03 -2.048685771506592035e-02 1.285934125549670348e-02 5.008125474649675023e-03 1.765617532571883003e-02 -9.570853265906158897e-03 -2.871013452119155346e-02 -2.429926729924130474e-02 1.202204227881478737e-02 -4.569830272369554414e-02 7.730810185430803810e-04 -5.577193385886429489e-02 3.372432925207247047e-03 2.870803237356422261e-02 3.083820122386699697e-02 2.912106437800056347e-02 5.114468701728270422e-02 4.195428849242273384e-02 5.752838111091335138e-02 -1.419184733681167973e-02 -1.072052962921840082e-02 1.023292991213382332e-02 -3.130207066710403302e-02 -1.065240448484896726e-02 9.107318561897115305e-03 -6.172725999430064142e-02 2.569133494859667313e-02 2.880904841538467487e-02 2.900397196754605014e-02 -3.292108359371911236e-02 -2.758368384728872649e-02 -2.121063290941214638e-02 2.138197744417578289e-02 -5.075243948802195953e-02 -7.452306813888712189e-02 5.147943915101668017e-02 -1.837942642326633250e-02 5.834737965549464944e-02 4.027060946209243264e-02 1.241910274978262098e-02 -5.781138191232694512e-02 6.408979473094948698e-02 -3.873919233690760466e-02 -3.914273840378243441e-02 3.004616075093886202e-02 5.774911107502628954e-03 3.832698505406074985e-02 1.652534525993323844e-02 -1.007170939876374065e-02 4.410842595579875930e-02 -2.236413898260695629e-02 -4.856632659243503153e-02 -1.886299570727605762e-02 -8.188139764294274925e-02 2.072480698007703528e-03 -1.549856007943673647e-02 8.549449869182513054e-03 -1.199452555253080824e-02 -3.561207982875029543e-02 -2.539744522713141203e-02 -2.597768341127670508e-02 5.597284356471627503e-02 -1.723602841732846695e-03
-4.961861391956036371e+00 -9.579512676707999219e+00 -9.507977447186018338e+00 -1.053051555029873398e+01 -1.129896140368377466e+01 -1.048255125808858956e+01 -9.015628236024016973e-01 -5.337782548084903489e+00 -4.030611892629384352e-01 -1.179304692986165470e+01 -5.887183508989781267e+00 -7.796926765007586191e+00 -8.957812274643899286e+00 -9.817498866100152100e+00 -4.713482403112474906e+00 -8.706548033361450223e+00 -5.638546670426297425e+00 3.294799561577813396e+00 -7.479928622515441106e+00 -9.692475627842782160e+00 -9.937841173289767127e+00 -7.823574891647433471e-01 -1.534298584089030015e+01 -8.814444690819577488e+00 -9.497526951782749194e+00 -9.570906671091355733e+00 -5.413012815844885139e+00 -3.459746800870739492e+00 -6.232599263420414815e+00 -9.384484159615242405e+00 -1.252093780789189559e+01 -1.239956900023344666e+01 -7.328167183691740583e-01 -4.335322103854090336e+00 -1.299570107456801571e+00 -7.811651032441309539e+00 -3.567638927267077431e+00 -3.584890204530635671e+00 -6.450835199867603009e+00 -4.286161295931515958e-01 -4.984483162667305400e+00 -5.689942452672194229e+00 -1.026637667231009132e+00 3.442945544922932033e+00 -4.478223937465579674e+00 -1.198193424015572184e+01 -6.354592245564194108e+00 -6.938729874218167559e+00 -2.979155784594371692e+00 -3.395649482295291399e+00 -7.181158892937034466e+00 -1.238402614147242176e+01 -8.462492628267265005e+00 -1.025311177629835946e+01 -2.271452989298806902e+00 -4.054574256395017784e+00 -9.879089094377677682e+00 -5.205806423434053976e+00 -7.820429672839552815e+00 -5.515170829614416625e+00 -1.562961356821799086e+01 -9.478270355336896102e+00 -1.239958722394997181e+01 -1.114192652121728955e+01 -4.476520902355836995e+00 -4.010825408542387116e+00 -3.651262196456109610e+00 -6.808662897535720404e+00 -9.587138181944476756e+00 1.564071734740641872e+00 -5.186688567465023603e+00 -4.172355861504386532e+00 -1.028462495414903088e+01 -8.406389707466308536e+00 -5.286122278598583080e+00 -1.733838977068867138e+00 8.934672527955289212e+00 -6.697649768743179077e-01 -6.205631127791003898e+00 -5.119435383070877421e+00 -8.771204425640082292e+00 8.549295446124569153e+00 -7.694822139022206464e+00 -1.474813759410378955e+00 -7.437564786638813707e+00 1.153426783372899722e+00 -1.101753499957472293e+01 -9.891916694316794434e+00 -8.194738257993021691e+00 -6.141279342594674340e+00 1.084129359661584635e+00 -8.298274409859061507e+00 -6.310837289773460590e+00 -1.237487130384218936e+01 -3.372901325530133221e+00 -4.803102035708116446e+00 -1.322349599240961204e+01 -1.141084076606547626e+01 -1.040661367678534610e+01 -1.102322444089797138e+01 -4.629624492776025946e+00 -1.474431862051960529e+01 -1.131588016739786262e+01 -3.104258601358505842e+00 -5.988396244198855634e+00 -1.072464291377433376e+01 8.630779350491934565e+00 -3.281088802825699702e+00 -2.691212059493987230e+00 -1.266812140403443365e+01 -1.062569718496678028e+01 -1.081054212752636801e+01 -1.437455854028421598e+01 -3.357583711980545171e+00 9.664022429519043556e-01 -7.468959181406906289e+00 -9.568514733131152639e+00 -3.868118529805762762e+00 -9.352534669740514062e+00 -6.225898045643900147e+00 -5.269956185027983686e+00 -9.685721603083333520e+00 -5.880903856095423876e+00 -2.565430191935599957e+00 -5.452182801138946822e+00 -6.938615507762830426e+00 -7.426248947755945018e+00 -8.941270965531648685e+00 -3.752380210775574376e+00 -4.862981874711340247e+00 2.741839569168009305e+00 -6.656094436854973040e+00 2.524058073568789418e+00 3.203780843611488405e-01 -1.148265948173274431e+00 8.921940752538947805e+00 -2.226823532861220034e+00 -1.052088813995811201e+01 -1.011797087988075283e+01 -2.980038004612829639e+00 -5.026971651644389638e+00 -7.888782923539398695e+00 -7.579228189871417776e+00 -6.804048685969693588e-01 -3.432146795231713732e+00 -1.319080250056661185e+01 3.042586532635791041e+00 -4.740293523739131487e+00 -1.488070837284152681e+00 -1.243475041030599471e+01
-9.203277897462294632e+00 -1.794052949499319638e+01 -1.506484765906869328e+01 -1.893187031165426859e+01 -2.015140466550431597e+01 -1.923329684734438416e+01 -1.206691670592259458e+00 -9.745969476697627698e+00 -1.473837471825655276e+00 -2.121434445858321638e+01 -1.142818751108899988e+01 -1.477861960408763586e+01 -1.687041578158948241e+01 -1.800279294957478626e+01 -8.513020086372895534e+00 -1.610933483191417892e+01 -9.266798222893717352e+00 4.558389920348086655e+00 -1.354899214455761403e+01 -1.781227387694157827e+01 -1.789751475724802177e+01 -3.200490598899174088e+00 -2.634817691949117346e+01 -1.612493589424003915e+01 -1.732381109227667793e+01 -1.660353000722133032e+01 -8.596633182181022903e+00 -6.832500595012041877e+00 -1.164715251493376869e+01 -1.643303872719624437e+01 -2.200315428231504811e+01 -2.144845709731713512e+01 -2.408984933110728477e+00 -9.634357933557788911e+00 -3.918460348635491197e+00 -1.386923420156979958e+01 -7.807113918269522834e+00 -7.389407166391030124e+00 -1.189204450051614081e+01 -9.545507510078569124e-01 -1.014679246866161932e+01 -1.031019207832422779e+01 -2.785455315366997198e+00 6.071831915560602866e+00 -9.166824642282934477e+00 -2.094633878588663478e+01 -1.221320791816376961e+01 -1.209323962767339111e+01 -6.442226371450043843e+00 -7.139845004104666160e+00 -1.179836514230260391e+01 -2.228609066138630368e+01 -1.495348688474901877e+01 -1.796500656343210167e+01 -5.499130572385451998e+00 -8.636836568737056297e+00 -1.659461070469082600e+01 -1.011998000507860596e+01 -1.402126751593216625e+01 -1.063060802935081206e+01 -2.818595008506935429e+01 -1.729229239670263851e+01 -2.211638841896737517e+01 -2.029521528524598395e+01 -8.734618634363911838e+00 -9.290109681873724767e+00 -6.808032961401093708e+00 -1.316886614323325944e+01 -1.665621245834981679e+01 3.267777356799612232e+00 -8.494943362729387104e+00 -7.665815755300917189e+00 -1.912399586339185831e+01 -1.458059612789349124e+01 -9.122911400466167109e+00 -3.827927064014929659e+00 1.572183369878453263e+01 -2.476065332179461453e+00 -1.109884338690800298e+01 -9.784053168903358966e+00 -1.617682339483564036e+01 1.518905311197921826e+01 -1.320159500610716385e+01 -3.125161584414405169e+00 -1.374786943433700337e+01 1.562434364912312468e+00 -1.902754808326524838e+01 -1.766549037815346779e+01 -1.465526850045148599e+01 -1.187483126026133107e+01 8.155301677662855075e-01 -1.534449260785920721e+01 -1.107198933180849743e+01 -2.179434201994368436e+01 -5.771441388912336379e+00 -7.635119382356983841e+00 -2.376687418864052503e+01 -2.060504398789744585e+01 -1.891200793070343522e+01 -1.996217643577249845e+01 -8.744557053547197256e+00 -2.528638530641270066e+01 -2.059632536355130839e+01 -4.671664608487279935e+00 -1.206679369336011298e+01 -1.800346131364842606e+01 1.545471518163383173e+01 -6.094969784206824670e+00 -5.881633289640206819e+00 -2.253366014929106953e+01 -1.920813494791373088e+01 -1.994913310319432398e+01 -2.537738179849322862e+01 -6.812727597756334852e+00 1.935180449323544716e+00 -1.399940096364966102e+01 -1.657056758696231213e+01 -7.558172527118395045e+00 -1.686631568710073381e+01 -1.297066429942924159e+01 -1.042425292142751836e+01 -1.645105834810930290e+01 -1.206875387736714345e+01 -5.127734044500229516e+00 -1.110228477476671216e+01 -1.272953765453764063e+01 -1.415212773429759885e+01 -1.534409395702531498e+01 -8.209802700861111191e+00 -9.832535795920502864e+00 5.367204011677987552e+00 -1.222595114472413691e+01 5.076364324961166297e+00 1.392307814277219613e+00 -3.275476045111719525e+00 1.484182943858028558e+01 -3.709329621827222478e+00 -1.848242318555481489e+01 -1.853226455911202564e+01 -7.404333780902761397e+00 -8.593161813638344526e+00 -1.367022276063461739e+01 -1.398661418761126818e+01 -1.991188271316282066e+00 -7.489734789698901274e+00 -2.371466460260069198e+01 5.463037401334293719e+00 -9.651462646541848045e+00 -4.091457164816310055e+00 -2.200793738204798444e+01
-1.145088663364705717e+00 -2.139479765548975010e+00 -2.661240829759727866e+00 -2.468098691726231309e+00 -2.691321794140915991e+00 -2.340549200654371997e+00 -3.623050059608672879e-01 -1.223189811331497179e+00 -6.747545694518937431e-02 -2.695692860198481533e+00 -1.224685744376026619e+00 -1.621494530239439236e+00 -1.957726804256852970e+00 -2.277185785423817777e+00 -1.089620773003891818e+00 -1.927989242452314400e+00 -1.490520768327024737e+00 9.796366164973137058e-01 -1.805392910128169603e+00 -2.260372247972551207e+00 -2.333408403269738418e+00 1.592759265725590678e-01 -3.849629838028996609e+00 -1.974867751598423427e+00 -2.089806754468097161e+00 -2.352547183988365820e+00 -1.379233441885387768e+00 -6.976546501250130428e-01 -1.324331459088483376e+00 -2.236610241915736541e+00 -3.072819349779998710e+00 -3.118658037023282148e+00 4.532579623016823323e-02 -6.708819632980099756e-01 -3.102112795054156116e-02 -1.823128030015656931e+00 -5.639092999030337339e-01 -6.433793074785950639e-01 -1.452613001702572015e+00 1.228770495588767456e-02 -9.076060810085120334e-01 -1.330180806987951936e+00 -1.081880787536130539e-01 8.413475759794184494e-01 -8.656571636236010114e-01 -2.847998258612355116e+00 -1.280769916077252768e+00 -1.734855820140793536e+00 -5.320443195916297885e-01 -5.822323122294923436e-01 -1.854981619898431466e+00 -2.897217145375434288e+00 -1.961242214077290491e+00 -2.534924854256761506e+00 -2.614626162776172436e-01 -7.225181809770262475e-01 -2.563857002281123787e+00 -1.054381722823957368e+00 -1.778957306721888232e+00 -1.207774267928039214e+00 -3.665096849902075515e+00 -2.237059062618623528e+00 -2.996391844214481459e+00 -2.554400937536949634e+00 -9.316181305106954191e-01 -5.365603997708526807e-01 -8.646624025077149778e-01 -1.436842518746035857e+00 -2.286496889649041186e+00 3.343818084649949895e-01 -1.413693824494633988e+00 -9.286073289770336858e-01 -2.327246231550883504e+00 -2.106601107475131851e+00 -1.284936456921585535e+00 -2.542744997347726188e-01 2.173645353515805567e+00 1.081470310167505083e-01 -1.484415953442175917e+00 -1.098710232224836547e+00 -2.012797099429803893e+00 2.060371128028397170e+00 -1.986442806792512838e+00 -2.915606355807191519e-01 -1.700935122389468646e+00 3.332425180398986830e-01 -2.684323284729244197e+00 -2.339585430503153152e+00 -1.960059528789354522e+00 -1.360151086092458828e+00 4.428007033781478086e-01 -1.905000779057066662e+00 -1.533524885537258742e+00 -2.956582717853456277e+00 -8.665051003429274923e-01 -1.312685381197062684e+00 -3.173795714445009519e+00 -2.630584478599632625e+00 -2.407010853876125012e+00 -2.540799288847724213e+00 -1.014768425527692974e+00 -3.652360906236959526e+00 -2.657261566268909636e+00 -9.290575799544491531e-01 -1.200733391298113073e+00 -2.763261297248309489e+00 1.993389414035931395e+00 -6.968082734134315448e-01 -4.599300265840488566e-01 -3.125061473064185691e+00 -2.483469291953386726e+00 -2.488762897945415276e+00 -3.451114684588239445e+00 -6.481554620754792495e-01 2.002143510802384119e-01 -1.704911774937918123e+00 -2.295243093939908441e+00 -7.576415145517298999e-01 -2.153348458604756210e+00 -1.180841232485301484e+00 -1.025387160832777145e+00 -2.413804368918930354e+00 -1.089445471214596894e+00 -4.669321918156837947e-01 -9.719097862080362527e-01 -1.516032352401867067e+00 -1.614576631065426593e+00 -2.245021228541360880e+00 -6.122332871272923027e-01 -9.624788570977463875e-01 5.589929478082182879e-01 -1.493150797138055319e+00 3.998057516982015391e-01 -8.503459531259563442e-02 -9.563391431548085020e-02 2.299944005670279790e+00 -4.976417247664288168e-01 -2.526757718054030377e+00 -2.262921343657672058e+00 -3.129881979299297678e-01 -1.254519945996549923e+00 -1.992887971923879009e+00 -1.727969374477012821e+00 6.135992917977813738e-02 -4.835359193665689781e-01 -3.074933889256628472e+00 7.293755100692248527e-01 -9.009166483946074999e-01 -6.864108975960148129e-02 -2.978583856897400572e+00
1.540227675354908198e-02 1.950296009629843771e-02 -1.916808569200721332e-02 3.736059819711284868e-03 2.727948484683368272e-02 3.930586116087563843e-03 2.245418577748216696e-02 -3.060431324345364718e-02 9.097658036499735312e-03 9.823156508899460321e-03 5.798312251721061961e-02 1.733269969860717213e-02 -1.791868671352258094e-02 8.676527028068375599e-03 -9.506821718025754153e-02 -2.721389369722401405e-02 4.786234075318555881e-02 -9.336320881189758697e-03 1.199244729197760338e-02 4.093113191178211069e-02 -2.095885501148067945e-02 9.110084705606341648e-03 4.406149418752470029e-03 2.814821820313238160e-02 3.403888724589649445e-02 1.724209968729157119e-02 -8.799572059907656563e-02 -5.371501879637499699e-02 -3.873166318353137624e-03 2.223872050067825581e-02 -5.091246787575780947e-02 4.465529061995517773e-02 -4.077002477661859081e-02 5.827661401082943199e-02 -1.240373487030833020e-02 2.147725162442552099e-02 3.997598811244759513e-03 3.902332131612022605e-03 -2.314706384488997640e-02 4.181494857595224879e-02 -3.279301964412226385e-03 -1.560277172528599585e-02 2.392209751209292429e-03 1.671809872835020028e-02 1.219594702786354671e-04 -3.795843578768166859e-02 4.231534168207763680e-02 -3.855444121044780507e-03 2.834170953207884808e-04 -4.116559820403615372e-02 4.572746627369762146e-02 -5.791838603911790041e-03 -6.794743577720155359e-02 -5.848218597141549395e-03 -9.250890707402567581e-02 1.996511989542108442e-02 6.553299717443481637e-03 -9.128033071761176842e-02 1.753639332789799776e-02 -5.903956357234865782e-02 3.367331276166322246e-02 -1.511127942842478353e-02 -4.531366912854268431e-02 7.397092710966107244e-03 1.044868792295895049e-02 -2.322832272065106229e-02 9.066169735834603977e-03 1.444149511203847089e-02 1.124465082586197789e-02 -8.083433689106330269e-03 -2.290536306940403610e-02 -7.921185100023334091e-03 -4.489382135471967766e-02 2.920175644229046092e-03 1.513687773671331185e-02 3.465224171668575270e-02 6.464514636111737267e-02 -5.328710974137011031e-02 -4.426293092259935003e-02 5.597821169724163937e-02 -2.009535980022929269e-02 -5.621564674011710755e-02 1.668903400803649004e-02 -2.742252240968399632e-02 -3.934792361182205128e-02 -3.077847402315254943e-02 4.091022087904902516e-02 2.445077466184659640e-02 -6.601829313448157044e-02 -4.160339370060162079e-02 -2.452552168646032066e-02 8.192029953315874136e-03 1.080035108749377581e-02 -2.828762366280770241e-02 4.867262075641735214e-02 3.626319090385927979e-02 9.438866930179668283e-03 4.968726503521329885e-02 -1.691199022151634868e-02 2.977650563783947133e-03 4.069433012251275766e-02 -2.659431231106942212e-02 5.485307597746445080e-02 3.245664516119992071e-02 -6.288059953739130736e-02 -4.851962864116672602e-02 -6.379446781086429985e-02 -5.959182534502763251e-02 -3.730771608485655699e-02 1.435880639553998445e-02 -3.171385390610198789e-03 -2.191798648769021154e-02 1.668125663630360550e-02 8.484253727976168169e-02 3.293830408473143179e-02 -2.131126222348469698e-02 -2.233663839324519229e-02 -3.414025771361780398e-02 4.259803398494769328e-02 -1.736935807352768188e-02 -1.755922131454077870e-02 -2.942575089846369285e-02 2.000218783797241481e-02 3.967014518969578379e-02 2.517067952943625314e-02 -1.490445509004224497e-02 1.597686725750224399e-02 -9.699471273000937269e-03 -8.836126387446878103e-03 -4.734018283779936609e-02 -2.555723250719167672e-02 -4.363672584507218531e-03 -5.046728986502777708e-02 -1.643661756762812912e-02 5.352615075899237046e-02 1.306722370960949897e-02 -1.110945143896503902e-02 7.377665386319097636e-03 -3.047973354460904033e-02 2.967433480949811797e-02 -2.641225200270667581e-02 -4.603295625586926315e-02 -4.253551763971753080e-02 2.748565136422897667e-02 8.586067946180634888e-03 -9.627348498581328115e-03 -2.413586068771351578e-03 8.781733714701863130e-04 -3.832732807997746294e-02 3.630452589411838071e-02
2.407288608400756310e-04 1.824129868953549422e-02 -5.912691625173966715e-03 1.760526741358014666e-02 3.197021314293736760e-02 2.442237484387779420e-02 3.266135249615979147e-02 1.593446467071090583e-02 1.741559073852801467e-02 3.830457365707819195e-02 5.779650778527150451e-02 -2.606413454703907645e-02 2.102731772721457611e-03 -5.450675856887967144e-03 -2.095942034513218182e-03 4.130522984042657442e-02 1.662765273794809123e-02 -3.455518162212536937e-02 4.277618725082677452e-03 1.579335389641887185e-03 -4.967271242849269873e-03 -4.103065264422264824e-03 -5.006750967022442073e-02 -7.620022623807504517e-03 5.570286478356792359e-03 -5.282269048743280099e-02 1.175845986368906360e-02 -2.675808591544485623e-02 -5.423433411909685253e-03 -1.654765224298284168e-02 2.910037364241609831e-02 1.433744124061084139e-02 -2.664404482604648683e-02 -1.429624610955357311e-02 1.840495801733581932e-02 -3.196133102663238461e-03 -6.249203687608527458e-02 2.732609525283942464e-02 -3.772300239168311590e-03 2.859727233378266467e-02 -2.147814895294163084e-02 -1.501187494581498333e-02 3.231198620140911248e-02 1.641540553303308392e-02 -1.902200198217700311e-02 3.235015192737716871e-02 -2.190118078442348029e-02 -1.749896301513288385e-02 8.582349179109769735e-04 4.428935759472570760e-02 -5.096205344790410117e-03 -2.585118952563160433e-02 -1.045042418975822632e-02 -2.469589935799908816e-03 6.939427117985235913e-03 1.144843724031911411e-02 -5.009289269610483347e-03 -1.492399565388993418e-02 -5.903134024736014437e-03 -4.076419557087693907e-02 3.711543927708483258e-03 3.152131743456949853e-02 2.577958892812523117e-03 -7.141739632788608868e-04 -3.042087823742121999e-02 -2.239637306811872661e-02 5.694375851585777026e-02 -2.818207140101789202e-02 -1.396694768973102269e-02 3.007642096567680542e-02 1.006051935695338913e-02 -5.134896252367983360e-02 5.815088939846608379e-02 -1.986655721504465566e-02 -6.131240307240321680e-02 -3.797019238739746116e-02 -3.446192278622876859e-02 -3.766220500489456113e-02 -1.724625880831959224e-02 8.409954197447784552e-03 -4.895855528036054810e-02 -5.914514471481335800e-03 1.539103173860827990e-02 1.120915195505636525e-03 7.610556961942696597e-02 3.396619703020258701e-02 -5.838824500831936741e-04 -4.797124980971109037e-02 -3.562756402430248409e-02 -1.980302384367688129e-02 -3.816483799603308941e-02 -4.917186879503742530e-02 1.955377117825961991e-02 2.991773100250071354e-03 5.681082441351719553e-02 2.858275179450570080e-02 1.082069687465517759e-02 -2.163874398991008988e-02 -3.924899908180019131e-02 3.598766355669105049e-03 3.955939134938466634e-02 -1.830111558851484424e-02 -4.999890235831892966e-03 2.339781809562611892e-02 -1.465702273970619259e-02 1.691536852554413953e-02 -1.503826540762301552e-02 7.519685478469315511e-04 -3.099404126037607135e-02 -1.448817284696109556e-02 -4.844659053399725038e-03 -9.266056810317890640e-04 1.810234936646552177e-03 -8.675024384644606026e-03 2.527754965553117780e-02 -2.423394686230413361e-02 5.434781557585724454e-02 6.605669794464438891e-04 -5.748246117591229026e-02 -3.343480093306944873e-02 -7.073644595687585655e-03 3.505621985380857897e-02 6.586491387644766160e-02 1.483921913322214410e-02 2.621915309296436042e-02 -3.373170904807868548e-02 -1.799211577500366144e-02 2.112443979724855717e-02 1.617125553861816292e-02 -5.661567777230910176e-02 -3.178907804825130412e-02 -1.551408776759785092e-02 -1.833203800308216488e-02 -1.663424426340250365e-03 -1.375237213611962654e-02 1.812378415837698209e-02 5.190781552534660254e-02 3.653121334904723544e-02 1.243658355185825980e-02 2.315870466427259397e-02 -5.985968753339412224e-02 -1.517600376487176356e-02 4.662226607369900251e-03 -1.431696256336366033e-02 5.615547812263350577e-03 -1.404794577788983680e-02 -1.322373869668377715e-02 1.521551477023819904e-02 2.146780714808564638e-02 -9.097751860583940323e-03
3.725047944885764850e-02 4.462185779416089071e-02 -6.482149348897341991e-03 1.024252075142812607e-02 6.408218075027984940e-03 5.403543228850987701e-02 2.234268452404362948e-02 -4.516811738802457149e-02 1.255470866121557311e-02 -4.134491169634146868e-02 -6.913346232405569169e-02 4.294059770429669957e-03 2.136224554798970415e-02 1.281975416853824157e-02 -2.755592344080039571e-02 -1.421178157243641743e-02 -2.426882007405083835e-02 2.808374503311708223e-02 -3.442642622528479385e-02 2.468383437425061225e-03 -6.945813353704081115e-03 -9.336647809325034075e-04 -1.302780349138476547e-02 2.333125552998568941e-02 -3.593975989292575585e-02 -2.722608772204863480e-03 5.677002879936555481e-03 5.327550726186350283e-02 9.537705043171603933e-03 1.169602424513014813e-02 4.054345678565570571e-02 -3.364247459512773649e-03 1.739641065336753473e-02 -7.219890650019439304e-02 -3.780723456726182985e-02 3.968805829711104932e-02 -3.204436883265925073e-02 -4.669112692773631779e-02 -2.687414418738409000e-02 -5.631347904613357401e-03 -2.870224140375479335e-02 -1.917413465966717745e-02 1.314343938137247855e-02 8.784774836224843245e-03 -4.313708797646337301e-02 5.801648395790388185e-02 -1.593556863659208525e-02 -1.920078347369628263e-02 8.471267490825931754e-04 -6.916143615503285956e-03 2.108032428587758300e-02 3.832813409996640996e-02 -2.737914515226680390e-02 -4.029273333437444204e-02 -1.276037557392222140e-02 2.329563597043187231e-02 1.768103785832238206e-02 -5.452011718041994276e-02 -6.443438773441230449e-02 1.476970414085618417e-02 -3.604834266844313823e-02 1.528844613901296848e-02 1.481953384001294220e-02 2.080867511330070779e-02 -5.338141619263557514e-02 1.849655962641467283e-02 -5.051797601859313314e-02 2.401301432469454475e-02 -9.226264686362509876e-03 2.246521454711020507e-02 -1.793747364601084443e-02 -1.911623143490850246e-02 5.169111421109948146e-02 -2.174644240396267358e-02 -1.119148141677780463e-02 2.898501912740974670e-02 3.311691203876045847e-02 -7.666986442841425275e-02 -8.566189269499131656e-04 -3.398520804758130287e-02 -6.045962537312352114e-02 -1.920931569367925751e-02 -2.301531818493292997e-02 -1.958738806246682757e-02 -2.700334149493048910e-02 2.851083859790595754e-02 -2.425319536082121835e-02 7.088015343795875389e-02 3.695009560539816440e-02 6.214911395908403330e-02 -4.215062169838899170e-02 4.444236514084619338e-03 -1.012200023399817579e-02 -3.536908619032205076e-02 -1.089181543034792483e-02 4.629732408748231387e-02 3.184388502957958937e-03 -4.298999028080208867e-02 -3.768445381936001010e-02 -4.381649862507112220e-02 8.058264155658037553e-03 6.526471661015990910e-03 1.632473652316954529e-02 2.061950069964742921e-02 -5.728771769135752173e-02 1.248579200597039508e-03 1.026059792149617775e-02 9.269165403559438687e-03 2.829668058024002730e-02 -4.908642339492972489e-02 -5.842254343819907464e-02 -8.765497894737623100e-03 -2.775718765472832625e-03 2.197554738580127093e-02 1.820298715712579882e-02 -2.226248217862446949e-02 1.035066799846491928e-02 -1.850572805762994502e-02 4.471563563848120551e-03 -1.351644294641580861e-02 4.322848754352927314e-02 2.334871293968164216e-02 3.650380200129602765e-02 2.105053588907029524e-02 -4.951098217641979049e-02 1.956617632712960228e-02 -3.708035801497149703e-02 -2.922224861910151586e-02 1.109602587980247287e-02 -1.512090708409675847e-02 4.424490926550781952e-03 3.646843486620118813e-02 -1.231724900034615079e-02 2.160977656153156845e-02 -3.266103629317096413e-02 2.165072016614532843e-02 1.502574268765705275e-02 -1.270472993748152611e-02 3.510642145712666862e-02 -8.438527311794932761e-02 -1.057812921671964085e-02 -2.485632707852442665e-03 4.367403392812264917e-02 3.027145261876945659e-02 3.985065534498929973e-02 4.688120930896802485e-02 3.146038996115689546e-02 -2.594654286515971769e-02 -3.384540821415580464e-02 -8.125451093315628343e-03
4.368684846231950247e-02 6.585224584921228752e-02 6.277795429411023309e-02 -1.011821643342055224e-02 -1.451501403597268459e-03 5.247921847457778094e-02 1.650737677085062013e-02 9.292281645251674466e-03 3.976444001360682906e-02 2.600799444393610618e-02 2.092791171014693127e-02 -1.454792716835598410e-02 2.568497923472638431e-02 -4.154198091983998115e-02 1.329349407251314771e-02 -3.162039726969100017e-02 -4.466273434150894867e-02 1.053316245065498251e-02 -2.305322670711228497e-02 5.005736244270966168e-02 -3.881251396887174659e-02 -9.302809102248075016e-03 -2.135407442475572432e-03 1.540518004464461015e-02 5.644112656754177691e-03 1.872955843227213854e-02 1.181220807103326026e-02 1.619207984032702136e-02 -1.531607397312217088e-02 -3.476365630678106278e-02 -2.960960073300173551e-02 -7.221315959736968049e-02 -4.714279139282730180e-02 -6.038651488025450261e-04 2.946752284801693739e-02 -2.571701881336650730e-02 -4.378472366473318278e-02 2.206066725782030238e-02 -7.838426807475259994e-02 4.563096772455112020e-03 -1.633031911844777528e-02 -5.407634294237221965e-03 1.742299541822814324e-02 -2.440247810046960314e-02 2.687863681959283199e-02 3.577357577104594427e-02 4.246015959546225473e-04 5.451513898121825019e-02 -1.328291641080114535e-02 2.351608395438254534e-02 2.618422093514991000e-02 -2.541342691086800193e-02 3.454176950289446907e-02 -5.193981327075526677e-02 8.129319512853373786e-03 3.732760214061525000e-02 4.714354394953785415e-02 -1.851705467603749142e-02 -7.796692931119942466e-03 -3.818941889455771538e-02 1.397781184349797257e-02 1.960885600994102806e-02 -4.141719891375634371e-02 1.352417199299239987e-02 1.622540194798063537e-02 7.244624458114597154e-02 -1.478954282291152465e-02 -5.741761103557053297e-02 4.985358633904944659e-03 -4.056523088107160530e-02 -6.772657545358172319e-03 -5.396675035169525708e-02 4.744239877415939305e-03 2.319269021790843106e-03 -3.634014415315482693e-02 1.399052504774038821e-02 1.737342548278429308e-02 1.932853861740073745e-02 8.599223816540850962e-05 4.564552779501519775e-02 1.836983958915289553e-02 -3.914883625403869222e-02 -3.582468840663830673e-02 3.274473385486337262e-02 3.106404904251721874e-02 1.793951894140403437e-03 -1.250587957177254350e-02 -8.278573754627380557e-03 1.208239695724032262e-03 2.334124087512067999e-02 1.419832472737774832e-02 -2.842779391416067059e-02 -5.059833642623804556e-02 -2.318921349709603813e-02 -2.428734255101751890e-03 -2.472334921664454468e-02 1.124559999650439658e-02 1.809703637189098366e-02 8.204621292608481331e-02 6.600892807210050235e-03 -4.530244948331596522e-02 -4.095808049501323267e-02 7.307041182009130220e-02 -5.306618324280408527e-02 3.136238610336736926e-02 -7.754100729403410816e-03 -4.072478131086625791e-02 1.797321973687420263e-02 2.788333410322695570e-03 -3.535707921882219780e-03 3.095347879123843890e-02 2.672619739492086699e-03 -1.163316088324197958e-02 4.655430011715024768e-02 -1.179776791703734257e-03 1.273398032558537875e-02 2.161228940445295704e-03 -3.635442880796312115e-02 -2.430593648571611684e-02 5.719471090971003924e-02 2.369977274345776153e-02 3.545926085126509947e-02 2.639307807662053581e-03 -1.235889758905652815e-02 6.362887211230380813e-02 -5.095770574297932287e-02 -3.417374308909199021e-02 -9.165845194385060721e-03 -1.292294915891692951e-02 -6.651526087523046589e-03 3.432039167914426731e-02 -7.229778192440365799e-03 1.318446116368663344e-02 5.455973112889688642e-02 7.587776272467436356e-02 -1.140442221204779165e-02 6.673571460501698943e-03 -1.817760324710644346e-02 6.713902483818423583e-02 6.221673357227509860e-02 -1.150828948566695424e-02 9.164431804881511059e-03 -1.061635218259935308e-02 5.741391966528202294e-03 2.698713651387751530e-02 7.030132977518252502e-02 -3.444709987451714805e-02 8.984534915133943200e-03 -8.380508688933559561e-03 3.751440421901806876e-03
9.847340118381594024e-03 5.897988639947879252e-03 -3.452797603186779501e-02 -4.373761653272373318e-02 2.586024897032347669e-02 -5.040629400240715166e-03 2.298821476140223280e-02 8.976747075440810048e-03 -5.045317675505198163e-02 1.047508278997610377e-02 3.466399577184138547e-02 -3.213534162964170465e-02 -2.707530605355930667e-02 4.092727865474372721e-03 -3.605557545725500412e-02 6.496686484889908388e-03 4.426802535670505689e-02 1.222583426737388831e-02 -2.728743075888060560e-02 -1.081141099554750948e-02 3.898142101562047240e-02 -7.333077375969835471e-03 2.333575912006788378e-02 -8.975603158835973204e-04 4.353702530793908398e-02 -5.268899852863816744e-04 -7.098756289303749523e-02 -1.345410523786194808e-02 2.741699851699468463e-02 2.077264180770860280e-02 7.600187312812892171e-02 5.367768016783627805e-02 -5.959677992912449339e-03 -7.543417922428790647e-03 -1.281998509177229191e-02 1.752246441484757791e-02 -2.672329800854944537e-02 2.767876729960649582e-02 -3.152386953009276796e-05 2.405052782075382117e-02 -2.599356786027715027e-02 -2.601012730537970163e-02 4.064263892225283489e-03 2.476506460349844896e-03 -2.299837495781954441e-02 -2.261798349835314817e-02 -5.320033996982856568e-03 1.276741925966916671e-02 -9.918752660778304767e-03 -5.294419293855422842e-02 -5.528667045431511634e-02 -5.382048597685825525e-02 4.515142665222857815e-02 -5.612081564395473426e-02 -9.388261050129810201e-03 2.205945207600848099e-02 -1.389899205624299701e-02 2.291753743045876757e-02 -1.527107389990047491e-02 -3.085700691615704538e-02 5.321099249427167430e-03 -1.959952382628046483e-02 -8.840313810757421953e-02 -4.110693351996152350e-02 -2.196968018509151341e-02 -1.322551937805493570e-03 5.120827130688372988e-03 7.479030890570856870e-03 -1.222614949257360036e-02 3.791751317528548743e-02 -1.544338444816925095e-02 2.255537357610633287e-02 1.976608353861842096e-02 1.038111753073864274e-02 -3.610443487893808673e-02 -2.246449593887261953e-02 3.211995544168332051e-02 -1.243391724380468744e-03 1.489250900190829986e-03 -1.098628064177045900e-02 2.291795908462871192e-02 4.672014905254831540e-02 1.811766077274448716e-02 3.691689755325330228e-03 1.828761525493124290e-02 1.002594529988106581e-02 -1.862169415082993301e-02 1.916483645854596615e-02 -1.370549535967612899e-02 -3.823450289690093901e-02 -1.783366325665321737e-03 -4.662465751745819426e-02 -1.511800122818150217e-02 -4.135680201706029568e-02 -4.387506170329572713e-02 -3.601379764053808108e-02 -1.351113583999755466e-02 1.356753614370241785e-03 -1.068228871777754385e-02 -5.937434734089102467e-02 4.346000287512944912e-03 -2.578064803904786539e-02 -7.365333942584663396e-02 4.279832106069790532e-02 -2.377584984108308593e-03 -6.749027531214331355e-02 2.862298892873326589e-02 2.377942429757702938e-02 -5.772779687313524949e-02 2.361157980918392532e-03 -3.525708731041309052e-02 6.387408391188552359e-02 -1.236307639229423938e-02 -3.603054168654401535e-02 1.535635087729714048e-04 -1.394119666137005539e-02 3.041846530323968206e-02 -5.796248119287465694e-02 -2.462837472216376430e-02 1.969198801192292153e-02 7.959573842927400791e-03 -4.388594328676576756e-02 2.717771394964418278e-03 -9.137190569590533662e-02 6.299047180292120796e-02 1.220659366325997294e-02 -4.988956429468691632e-03 -4.995180397963736030e-02 3.611741002813571334e-03 1.574864698694541931e-02 4.046253334239996446e-02 -2.204718510779280286e-02 -2.964875738250604548e-02 3.518251618367569666e-02 -9.331618698421001445e-02 -7.378331538811261359e-03 -3.394161317240459996e-02 3.293672333685398329e-02 1.481513395268788461e-02 -4.365366133436514307e-02 -2.846474482756167906e-02 -3.399294411885005890e-03 -3.484233935296763424e-02 -2.774360237826814859e-02 6.580090651556673442e-02 1.042365561375239134e-02 -1.569251472750381876e-02 -3.143950099154037281e-02 -3.671666663937119338e-03 -4.363417322006326628e-03
-5.052866256846218901e-02 -5.239283995677494754e-02 5.155292034717415955e-02 -2.005287755733481739e-02 -1.812316978297221631e-02 1.918968396419364064e-02 -2.527377408456179392e-02 3.774730307936110391e-02 -5.605091371080848754e-03 -3.335826515650882479e-02 -2.299294591651750500e-03 2.161130894940816588e-03 -3.058316571017976465e-02 -6.943699950832005197e-02 3.355508511954587159e-02 -4.640831830506459386e-03 1.090927787254698453e-02 -1.403618594281688843e-02 -1.365338262014178594e-03 1.991534584504504532e-02 1.499573470230575883e-02 -1.349270781945543542e-02 -1.659531642648285829e-03 -2.776648859763359081e-02 -2.212020956073658482e-03 -7.928012532257146250e-03 -1.676433670381787672e-02 6.746584601989510932e-02 2.983203715532995251e-02 -8.214370814102339713e-03 1.482097592683056207e-02 -3.369109377662403860e-03 -4.065466351512454779e-02 1.210850636001850056e-01 -4.364857849547391921e-02 1.142483494593038613e-02 -4.682946302914806069e-02 5.820035631122787850e-02 -2.297336322945040324e-02 1.133744615411599183e-02 4.691940503469731877e-02 -2.602814800195853845e-02 -1.395007975250737997e-02 2.012749514408952375e-02 -2.938449360824932854e-04 -1.073234836515636788e-02 2.326692463473586242e-02 1.207191290275518546e-02 5.072987651393217473e-02 3.983400529135329438e-02 -4.002100078961497165e-02 -1.482537377038665397e-03 1.995023211059192975e-02 5.601517964835450725e-02 -3.227480132996406181e-02 6.804517268567686697e-03 -5.688183397256165764e-03 -3.119331396498771351e-05 1.032663306561639426e-02 3.798363429468776947e-02 -1.102918321726857956e-02 3.116433024985646935e-02 4.887268798955389515e-02 -1.957014249634749913e-03 -3.838753163797886583e-03 -2.694489855128580011e-02 1.486649741171913036e-02 3.785364929391488165e-02 7.356490065489681637e-03 -4.810453729359091823e-02 5.342158787428227112e-02 8.948657024154616293e-03 3.667003958719239256e-03 -3.352187058560854305e-02 2.229903260594462335e-03 -3.128577685174646628e-02 1.234565070595394949e-02 2.435568985769037686e-02 1.965705446599565545e-02 -2.713348011811740276e-02 2.016411542787533567e-02 4.173745277551557664e-02 -1.648231045562652611e-02 -3.500376461359951813e-02 -3.272622234164614813e-02 1.510971956603537024e-02 -2.226308700281676503e-02 9.242389087415568694e-02 3.101852705767850406e-03 6.527788952239360620e-02 -1.146352682900118880e-02 -4.081535850245691238e-02 -5.022104539505693049e-02 -2.497574628627659277e-02 -3.541954890538565742e-02 -2.223512324886647504e-02 1.116155582913914458e-02 2.071822786514710898e-02 -2.263222282129534121e-02 -2.549582984541543321e-02 1.970818050658997705e-02 2.937917007680019774e-02 1.356347107821364965e-02 -4.790032301930664121e-02 2.106246367169719441e-02 4.136173100497424204e-02 4.139560230756091780e-02 4.992375564225415285e-02 2.488919024715260594e-02 -2.195915838625603703e-02 1.334650763238560793e-02 2.566992732735904476e-02 -1.103700898475960118e-02 1.268477783244618745e-04 -3.866448513834415401e-02 -1.430785328892981295e-02 1.953028657326226492e-02 5.569302956933926130e-03 1.245134611660064609e-02 -1.451430422009068744e-02 -1.776164546431065541e-02 7.052897963160224999e-03 -2.211471592670591693e-02 9.880143452641544990e-03 6.450002224117210720e-03 -3.313025445258299673e-02 -1.366447022679028594e-02 -7.297724017006231717e-03 4.032160926525330674e-02 -2.057223044001710646e-02 2.714494089920240286e-02 -2.225191793186508116e-02 -3.955534265364885754e-02 -5.649259721485566828e-03 -4.992784919018985329e-02 1.795947907494619203e-02 -1.350292430751820656e-02 8.912512320244000627e-03 7.200871235644661084e-03 7.270216770482119430e-03 -4.970545650568480162e-02 7.926230444592638133e-03 -1.331255865750722786e-02 -2.217747908908643956e-02 -6.664220239036454385e-02 4.518421361491262167e-02 -1.153167883511954130e-02 -6.160669158388708960e-02 -1.245060246215804779e-02 2.798096366685222727e-02
-2.538418579361146482e-02 5.741024862170381743e-02 -1.230453483018812896e-02 -5.431594059751150561e-02 -3.596724124046899850e-03 1.280372219382118308e-02 -3.218630678838857624e-03 3.820565442925842603e-02 -1.707505091262093849e-02 7.843321633535511872e-02 -9.139701667121276699e-03 2.742538783832957142e-02 -1.247174669004763245e-02 2.576247073664047690e-02 5.665963101709974720e-02 -7.397894053986230067e-02 -2.355967466706906238e-02 -4.200991242467647796e-02 4.125820704418283608e-02 -4.912024212020957986e-02 1.584970743988342720e-03 2.740160728257240094e-02 -3.720052245008849748e-03 -3.637879237073531058e-02 -1.904729738630676905e-02 1.228051034992879396e-02 -3.913820697652408559e-02 3.393876064779421942e-02 -2.000901421572958555e-02 -2.745611392322364411e-02 -2.380544167699757963e-02 -2.131092653583388161e-02 5.813565951822079192e-03 -2.877217708346242395e-02 3.673990953353722250e-02 3.406682090239871417e-03 -1.536115711027067829e-02 1.179426005609867344e-02 -2.815470512330384319e-03 2.411646602799995612e-02 6.568264974778807025e-03 7.062031154621757970e-03 -1.185200367025534413e-02 -1.723732576608370815e-02 9.699604816129721654e-03 1.966681642846431974e-03 -4.283434477963603965e-02 4.791782682092055046e-02 3.515343505516461270e-02 5.196133668344361800e-02 1.394424480061735513e-02 4.471587415489980399e-02 -1.911186776789786101e-02 9.352266978720517529e-03 2.967107425858102679e-02 -6.524354672589112447e-03 1.131444107243047108e-02 -2.147059153643222570e-02 -2.219008840704794761e-02 -1.235736824205040107e-02 6.932760932429006019e-03 -4.162212415252179720e-02 5.402772379874833759e-04 1.212752184807284854e-02 6.897407344907233173e-02 1.795867307254209871e-02 6.587935608509237762e-02 -4.994489391814919271e-02 -1.810167481628079328e-03 -1.148015947466451102e-02 -1.664027578108017227e-02 -3.249996922595491111e-02 1.960170971423977684e-02 3.163726271621399716e-02 5.358694565018977396e-02 6.340362062786454589e-02 1.675253354493633912e-02 -5.180313795265163029e-02 5.547362780746805527e-02 -2.417463207270110354e-02 -1.156941101774443953e-02 -5.071273960284610610e-02 5.249132639268964950e-02 -6.891891600841960897e-02 -1.873627258691282216e-02 2.226829827347460988e-02 -4.622473734820015112e-02 -2.163958037206302823e-03 1.634688525768631176e-02 -5.001078525840365469e-02 3.997379021089717682e-02 -3.744686051049896797e-02 1.946923084512143520e-02 -1.477442149077412212e-02 4.454407879654770364e-02 3.088134400639866092e-03 1.634796721607251896e-02 2.470947469781769115e-02 -1.680915955408975732e-03 -2.282575410311626571e-02 3.261436063302323995e-02 3.284068527077950439e-02 2.471659589105244456e-02 2.365026684964792805e-02 2.951958007516407301e-02 2.934336406216540502e-03 -5.971637428815807641e-03 -8.422402255066062729e-03 -1.251750835458475446e-03 -3.051129531633755762e-03 -1.349531699390831702e-02 -1.492970371101869868e-03 -9.631038783591451546e-02 7.424996600728044245e-03 2.510775284582743641e-02 8.690314016227154801e-04 1.291082374320210759e-02 4.655674567395517993e-02 1.946064514823461419e-02 2.756483141176893636e-03 -3.161929468685026334e-02 -1.770791583552115342e-02 3.734619012330925303e-02 -1.143797624766532996e-02 2.695091566748840026e-02 -6.317319553332761961e-02 1.285090589610231836e-02 6.492458811823988152e-02 2.851050182552177306e-02 1.015357359541163226e-02 1.064762566399287888e-02 -1.415808415759561845e-02 -3.536492038047967662e-02 1.757120544372979890e-02 -1.566150969907303611e-02 -6.063006429624215321e-02 -3.090761801719548590e-02 2.516502581072926903e-02 -7.959451863778157707e-03 -3.664500395429682450e-02 2.179810620932423962e-02 2.875435104672686981e-02 2.869920911609418618e-02 5.200786275215233193e-03 -3.350883311457227010e-02 4.455223458486430588e-03 9.290401273369159121e-03 1.571004631838644749e-02 1.479853827796526709e-02 5.502767515044024779e-04
-5.233808467458340996e-02 3.501729898584412387e-02 7.573156891986917646e-03 -3.270257203457565404e-02 -1.698841884926802605e-03 -3.063855308256955776e-02 -1.015467912333880060e-04 1.175296672217754704e-02 1.799882260249234534e-02 -2.441414706619272554e-02 5.835461632264781623e-02 -3.742126172696863540e-02 -4.868035901739616034e-02 -3.144390614358386071e-02 2.326634789916205009e-02 8.878220145405303632e-02 3.747964414321210136e-02 2.866765711234937550e-02 3.431927858964532035e-02 3.643195662586522915e-02 -3.917195533922143008e-02 -1.169849667335264541e-02 2.884971252534771630e-02 4.460279758725594484e-02 1.075056555499581158e-02 -3.624173457225680125e-03 -1.207442014662874798e-02 5.294620620098534902e-03 -1.878189896645349882e-02 -3.098395014468847616e-02 2.644388591005093422e-02 -2.154679052415521198e-02 -2.646421824629229327e-02 -2.092021033949880999e-03 -5.185449875454312824e-02 7.333592487017585003e-03 -4.629615054487080938e-02 3.587013219341721876e-02 7.337023895018997960e-03 -2.474338058207832883e-02 2.561469902693876144e-02 2.019317856984584672e-02 -3.181017114462749568e-02 2.769835803752380976e-02 -1.201423583595250975e-03 -4.445675851992009903e-02 -7.052402463089303165e-03 4.384818227444420291e-02 -1.581699057656140925e-02 -9.019790832359668789e-03 -7.516603951538245940e-03 -1.024895091784766218e-02 -1.564201407944350308e-02 -1.153174769055356937e-02 1.403174110026320087e-02 6.242719811366880672e-02 9.300387737623138154e-03 -1.381347756935544409e-02 -5.000277718328382387e-02 -4.369479733492796780e-02 -2.640172761285699415e-02 9.342623960088530799e-03 7.124675906824349788e-04 5.076803145805506429e-02 -1.682635124900676640e-02 6.634614484140993404e-03 3.464826029430211757e-02 -1.547014585410258665e-02 -5.651483769367134785e-02 -1.344363248862745844e-02 -5.584672045478541319e-02 2.419755689800334036e-02 5.011938854913124131e-02 1.950298791877550994e-02 8.226419620041323932e-02 1.416248133755331449e-02 5.742785161809276645e-02 1.000171590329832980e-02 -2.249838413991055511e-02 5.009345734497815117e-02 1.460956835321555909e-02 -1.777839827841628736e-02 2.830367203673040191e-02 8.698097063472015958e-03 7.160274928739504552e-02 1.056378255731241569e-02 -9.493500314593733211e-03 4.543411241522778837e-02 2.335000699053436934e-02 1.434916933224167357e-02 6.248268301082405413e-02 3.319303430733643034e-02 7.151551160964843279e-02 -5.480111181339597515e-02 4.771987143614371540e-02 -1.082082238137088703e-02 8.427860908710305479e-03 -4.140155907667697477e-03 -1.329870369286972193e-02 5.859865947417473853e-02 -2.858427566438414072e-02 -3.781236204628070363e-02 -3.589338368486912935e-03 1.856593051579514750e-02 -5.092891557787672385e-02 1.659934532773608973e-02 2.021101013765838617e-02 5.389777721734784199e-02 4.343951908826017977e-02 1.357548081526263085e-02 -2.981201550384670468e-02 3.216929530398625336e-02 8.525277426941136249e-04 -2.477919710128342543e-02 1.586419923814465574e-02 2.627432946164530089e-02 -1.408420418955742479e-02 -9.875808091280541268e-02 -1.375112198163408808e-02 -1.938644341122221920e-02 5.573852150787005945e-04 -3.026064959865244069e-02 -2.940277111708389755e-03 1.699470895147485450e-02 1.688459514959042909e-02 -4.207491729215864090e-02 -1.765004932769279750e-02 -2.938317136928573700e-02 1.121169868798782727e-02 2.763119711107736576e-02 -6.450925066667535790e-02 -3.224413328273458695e-02 7.788628865836126625e-02 -2.075775076036774289e-02 1.086005008287579607e-02 1.040409580708447643e-03 8.363299144789794123e-03 -2.362537255362270883e-02 -5.584290126468068050e-02 -3.239510164079458659e-02 -3.447369183163487283e-02 1.236108826182234256e-02 -1.337030805159415692e-02 5.278017697879940767e-02 7.790553983913121525e-03 -1.063357539742920514e-02 -4.812973230167581079e-02 4.829667063500606150e-02 2.224559414505721672e-02 3.155177203928598989e-02
9.171396914691268970e-03 1.524357870625939020e-02 -1.817534383823416269e-02 -3.261787874963251090e-03 9.732942944187188139e-03 1.366019715542274651e-02 -2.339112978348813210e-02 1.453451552117986621e-02 6.812119917992916218e-02 -2.430186216579181130e-02 -3.422121265436001147e-02 -5.044893220559972663e-02 2.214795870415302639e-02 2.577897477555727082e-02 3.967033803080294990e-02 9.587284513816866915e-02 7.899367748950469892e-02 7.250451993255530025e-02 -3.088184803862630695e-02 2.371529891193879802e-02 -5.105031544387963853e-03 -7.833777207438576834e-03 -1.017223946776517687e-02 -6.081402446076484419e-02 -3.278034949873612214e-02 -4.291387116130426782e-02 -6.070688155553706500e-02 1.957757084116771087e-02 -9.577862034744364858e-03 1.003236055032502745e-02 4.066828574697981674e-02 -7.716247552479031657e-02 3.637476217132806777e-02 4.100056387538401903e-03 -2.798596429747601463e-02 1.215534756818261418e-02 -1.943837838041163890e-02 2.162509232049232653e-03 3.533041739025355454e-02 -2.132393858269823750e-02 -6.240050393146882174e-02 -1.456137946667688740e-02 -3.194808688915300871e-02 -6.954159458142716160e-03 -1.513698125211009222e-02 -5.135343417057140758e-02 -1.854078551850320972e-02 1.808991724350664243e-02 -2.400220765520185220e-02 -5.279207704541981350e-02 3.887875464877680893e-03 6.423447867718470872e-02 -2.379629460215565082e-02 -8.689578861915253638e-02 -4.768124906717691180e-02 1.337859727775594053e-02 3.535316636357368862e-03 -3.164799467483327480e-03 1.529849548713887487e-02 -1.211448540059754594e-02 -4.209717415302889273e-03 -6.237238038196820517e-02 -6.304468990435840685e-03 -8.988159159833079836e-03 -1.043782031031697220e-02 2.101647294422890125e-02 -3.931729562738146833e-02 7.535605231777105228e-02 1.528810961179501160e-02 2.597441369556609606e-02 2.341410528258929327e-02 -1.208187376431790229e-02 1.330522457259196607e-02 -2.992609371768468682e-02 2.221646590476967012e-02 -1.898683331744248142e-03 -1.021429050519041641e-02 5.672477340378356825e-02 5.543568719819508966e-02 -2.836031369394355697e-02 5.232647250788149268e-02 -5.501934002151289771e-04 3.624284513890575765e-02 2.700832862112920521e-02 4.592740109583961367e-02 2.428905488260553816e-02 3.065284969389548558e-02 3.484456579017618932e-02 7.604083685150949193e-03 -2.576625025918071951e-02 -2.152810388695839631e-03 1.057186014558849502e-01 -2.321753920783643094e-02 -9.605964685283029797e-03 -6.504177910221534305e-03 -1.854464073270176497e-02 -5.121195757306571533e-02 2.784976249005399404e-02 3.925433792182653203e-02 -9.558917748103516743e-03 -1.975550304969616103e-02 -1.001754684835989492e-02 1.984331688044477238e-02 -8.439130950140483201e-03 7.629836521531666894e-03 -2.221819825650266783e-02 -9.588370898510126250e-03 1.121292402174534943e-02 -3.055723901086388264e-02 2.465159446659679829e-02 7.057222449732725167e-03 -2.756892239247709167e-02 1.782066129679121813e-02 3.632751573215409202e-02 5.296529048295006009e-02 3.237871704188473310e-02 6.623274872907745914e-02 1.482181691322226151e-02 6.028633449744016937e-02 5.025963995557962936e-03 2.666744400580951455e-02 3.788458087652479128e-02 6.526534196891815853e-02 -4.017589670645966421e-02 -3.943489759794733401e-02 -2.646163113723378271e-02 2.887522720798176706e-02 -2.854203775507674345e-02 2.774656930813579336e-02 3.756694236775973833e-02 1.330516708684954114e-02 1.852338383616126266e-02 -2.588743287765710166e-02 -2.989337265656919623e-02 -1.936158413851676169e-02 -1.750237841269591810e-02 -4.609169562208599580e-02 7.482838666029763275e-02 3.330939342937452169e-02 1.235784138261924320e-02 -5.428920102312006363e-03 -2.579735999239238936e-02 3.125858392212166326e-02 -9.560393238432387045e-03 -2.438034469142180347e-02 1.415171850913258915e-03 -1.175024812173997360e-02 2.014384022916307360e-02 8.332381229121676308e-03 4.491300641453394721e-02
3.803121858104983877e-02 2.871445978019713380e-02 -4.246977302151752620e-02 -5.518750695294554615e-02 -1.335970971653663991e-02 2.807273528371537555e-02 4.082190410706571654e-02 -1.407719027093967852e-02 8.371017235798404801e-03 -2.633955882006535493e-02 -1.518317975963566838e-02 -6.790442745936111323e-03 8.483222380622301370e-03 5.715679493108740891e-03 7.804514089443927334e-03 -3.401089540909570802e-02 -2.868914650996116922e-02 4.010954924680958794e-02 -6.879525429880712674e-03 -3.430238711359800876e-03 -2.942852428588282193e-02 -2.359331709105221345e-02 -1.550183790751167093e-02 1.299673822745163812e-02 -2.923733874093939131e-02 1.742587998500622765e-02 2.569041544358295973e-02 -2.443677967369297949e-03 9.772665063429926066e-03 1.593334398407769735e-03 2.216457602648004913e-02 2.038680348216775906e-02 3.312681399753117806e-03 -7.564805686379955096e-02 1.148124483149906387e-02 -1.274181040162655591e-02 -7.013600378940616775e-02 5.535453069784506373e-03 -7.766655755747039515e-03 5.713843247998826730e-02 -3.265392844246957360e-02 -1.876571577195019006e-02 -1.295198373528782393e-02 3.047784533052066286e-02 4.678493546263211983e-02 -6.931636165667826033e-02 4.546630696460798871e-02 3.524944077217701671e-02 -2.316071395433825716e-02 -2.868531997826572356e-03 -9.556823157630954177e-03 -6.650639582002940142e-02 5.008240633031337159e-03 2.370511288837790637e-02 -1.197481585470363229e-02 -1.932911291887765351e-02 -5.681490770910722909e-02 3.367784221260227556e-02 -1.803161008254824602e-02 5.642778988276300756e-02 -2.093493820287051221e-02 -3.216215371419935132e-02 -5.716613849744782427e-02 2.900323113528316399e-02 -3.017568040202132235e-02 -1.012988506362297314e-02 -3.955681409934566628e-02 4.619664798361109576e-02 -5.166455618461741894e-02 -1.017299566822178584e-02 -1.727395591588619730e-02 1.594167806065125217e-02 3.372251198705466385e-02 3.893778219708589079e-03 -2.369016306323496260e-02 3.216060149624421437e-04 4.617664068534041433e-02 4.705135817415299210e-02 2.935387116992987239e-02 3.323240103712340326e-02 -1.742527198977520883e-02 1.779149709679754207e-02 -1.073175542131522310e-02 -1.253790914955885648e-02 -4.793401637213677569e-02 -5.603696539136678728e-02 -4.667581348240846389e-02 -7.903231495103996140e-03 4.990109209555841641e-02 2.022640392600069670e-03 9.683951423432512681e-03 4.821092215783395946e-04 -5.009236180906800201e-02 -1.666370765746057626e-03 2.837327806520692844e-02 -1.743276575523634701e-04 1.274075431357411282e-02 6.917494852968505449e-03 -4.426450734338806085e-03 4.002943758431719984e-02 -1.034717965575874220e-02 1.167968989517432360e-02 -3.047130059236892799e-02 -1.632881748022749560e-02 6.315719415645190682e-02 2.612286147032250733e-02 -2.316749053032596262e-02 -3.666839963655983692e-02 -4.634726852486206750e-02 -1.393691082488360093e-02 1.514096153687364632e-03 -2.169622113204166744e-02 2.229219973110051559e-02 -2.766314905932756949e-03 -4.321011264490081348e-03 -7.505123149622342123e-03 -4.877813684429666008e-02 1.887843593166239203e-02 3.781870721965775728e-02 1.386541637162619876e-02 -5.696307909922206786e-02 -4.769108632086124962e-03 -4.213649417131247465e-02 1.168274450271022079e-02 4.121228750495328774e-02 1.899087656109401875e-02 -2.323000844980668139e-02 -3.436905400910433839e-02 3.911449329003637704e-03 2.320166844393802691e-02 -2.456171293704065978e-02 3.013348886273455735e-02 9.803755625648448782e-03 2.431939617381031864e-03 2.891142170627657507e-02 1.856532286506266602e-02 6.303132957072115489e-03 -4.936277599185725368e-02 -7.471849190384778280e-03 4.235606512479441615e-02 6.117256006297795701e-02 -5.242369150494718445e-03 9.983240584950684240e-03 -7.040966858047276178e-02 2.805997126291764551e-02 -3.336428251735127498e-02 -1.224527216938485399e-03 2.035490267158411581e-02 -6.623207188495077065e-03 3.504870004293726693e-02
-1.619098571220619828e-02 1.353859833640818841e-02 -1.636090879903852671e-02 8.597052454265419544e-03 1.000363652411559966e-02 2.196349421409495711e-02 2.615407207401086384e-02 -3.038384498974561632e-03 -3.337696752004474989e-03 2.884257087370261513e-02 -6.736713841332715724e-02 4.498839681700248644e-02 4.139757450709739134e-02 -1.114661849438353981e-02 -2.303332036154735751e-02 -3.707708356809508859e-02 -3.203835283692643698e-02 1.596459008738991949e-04 6.257253396155962322e-02 2.010408254618845092e-02 1.001082276767071427e-02 -7.370534056947250501e-02 6.332271963175584856e-03 -2.013998462270207707e-02 5.079296047757964061e-02 -2.706219455163347970e-02 -3.863806537019148779e-02 -5.315032578973171579e-02 3.815320933175554013e-02 4.329029264305153148e-03 -2.676266587477882375e-02 9.328971995177364265e-03 -1.793540432491696687e-03 -4.185105071618404338e-02 1.878939547434081703e-02 -3.090343627808293803e-02 1.060988667442336764e-03 3.392986463987673548e-03 -2.713034179588970710e-02 -3.022624998654253534e-02 -1.187878440130763977e-02 -4.119086160368307797e-02 4.199514172274994295e-02 -1.114906335871363591e-02 5.381952547527230762e-02 4.961781827726238076e-02 3.095061526671724281e-02 -1.544578771635425000e-04 -1.497788970981810304e-02 -7.955885783061772756e-03 4.984141192953391725e-02 1.577435311699767681e-02 9.365323229712688158e-03 5.058674309143721542e-02 2.682894625910233963e-02 3.206694570525635973e-02 7.186873893817691261e-02 -2.607092813695764070e-03 -3.526836069116874584e-02 2.440429380350466609e-02 3.647271898509609617e-02 -3.970632988945690250e-02 8.605463344964361591e-03 -1.651916423508548171e-02 6.914972661683745081e-02 8.398192904172086665e-03 -5.313895248187536224e-02 -2.791279673341922132e-02 3.398897494923162899e-02 -4.532888424858066805e-03 6.571749806672960714e-02 -3.607138853354194784e-03 1.961185786234219061e-02 -4.352161979406502304e-03 -1.847915155768732262e-02 1.773330940306516029e-02 3.202126722167273048e-03 3.000776164331506179e-02 -1.602434043536894032e-02 -3.534892024877026723e-02 -1.393527709797463474e-02 -1.691712411523402931e-02 4.324676276570278699e-02 4.359289797920841078e-03 5.674562987738783482e-02 4.051040791579647166e-02 -2.550090429750670115e-02 -1.513996908720641708e-02 -3.962802354490098378e-02 -3.263396053090437260e-02 -2.225460549441028377e-02 -1.110405694195229498e-02 9.940038429880782012e-03 3.132101107482804930e-02 2.046401178154545752e-02 6.526588846582823122e-02 6.630877151321079577e-02 4.856910841923881700e-02 1.724570760510149223e-02 -2.459325633335407435e-02 -5.068187713847811110e-02 -3.351636083892491763e-03 8.269050397866772872e-02 -8.724045494245191365e-03 -1.780780779807127415e-02 1.530813801792778664e-02 1.108372107488157961e-02 4.912940064621445363e-02 -4.450274672906817663e-02 2.095567316818738521e-02 -4.058646461936699784e-02 -1.707017661773449838e-02 5.408341757145051359e-02 -4.427803055139101912e-02 7.657359998430423274e-03 4.881748226792701037e-04 4.100082389606617486e-03 -1.199377999827387718e-03 -1.402458588656498202e-02 8.649096771396594385e-03 -1.664824401171736273e-02 -7.895149609336696295e-03 -7.381588403807744746e-03 9.368751773008221484e-03 6.131857719165892742e-03 -1.171816140523209912e-02 -6.141781174495870681e-03 -1.042442218504782171e-03 -2.320242938368399788e-02 -1.427151604418931121e-03 4.626137720369783574e-03 2.947658813316251028e-02 -2.431010642604777491e-02 1.963340384633485008e-02 1.285773667308631393e-02 -6.855243718610949839e-03 2.034354364761778791e-02 8.246509002388718521e-03 -1.996330469187931889e-02 1.681220490236116222e-02 3.798895211679925027e-02 2.570946205069570695e-02 2.626896013521941298e-02 -1.946673631313954739e-02 -2.361201608699996235e-02 5.168185846834226493e-02 -8.831356566533958910e-03 4.932836969987492576e-02 1.634067517409156997e-02 1.190565932831602267e-02
4.441610423724432627e-02 -2.076258021867542162e-03 4.975612430497067945e-02 1.789130511174969601e-02 -2.231416450946548113e-02 6.778165142830540335e-02 -5.448728378967700875e-03 -1.540966227183879732e-02 -1.626798784702735562e-02 7.176945666859649645e-03 4.316334621404343402e-02 7.702169171475718723e-02 4.275077189562692323e-03 2.660415929424160900e-02 6.704711165019931751e-02 -1.836443509015197109e-02 -2.324945124013535688e-02 -1.785143413076633809e-02 1.772331650658815275e-02 3.069928084512278232e-03 3.245535798364427432e-02 3.595980689034649486e-02 -4.655608758148235826e-02 -1.158433578062578219e-02 6.169748759948836571e-03 -2.857195829920261294e-03 -8.564392583026970984e-03 9.733020662327522901e-03 1.392072130298001656e-02 4.337289009239368026e-02 7.552813468820611387e-02 -3.042197781340139767e-02 -5.327543421639260868e-02 -5.289224316680202209e-02 -2.996368630414518106e-02 -4.384014858197816250e-02 -2.474475233131963672e-02 4.670634142692744670e-03 -5.132207362123220734e-02 -9.831000951138346364e-03 -7.795072118829614316e-02 -1.299063571897371254e-02 4.347544022531682484e-02 1.213537693462891703e-03 4.987282220319778046e-04 8.504991416881746077e-03 4.694379302321415037e-02 1.948590804710296359e-02 -3.602501122966918472e-03 1.987386920088678177e-02 3.146614592767973256e-02 2.726172705809824445e-02 -2.446977582333068058e-02 -3.207241260785053706e-03 3.244300437110522045e-02 -2.222243268672942015e-03 6.970757505736309423e-02 6.524987821476389838e-02 -6.664030410032060862e-03 -3.933399620195646151e-02 1.501348482609015690e-02 9.390937259957704911e-03 -6.131579788216395648e-03 2.942134077803057815e-02 -6.525676797109761229e-02 6.159998485470685216e-03 -3.772455289324122552e-02 1.706846206521597450e-02 1.867659163342096432e-02 -3.329821603209642562e-03 -2.221302852895064989e-02 -3.100622824534574745e-02 -5.143703110179248528e-02 5.525496785606733713e-03 -3.411403834985334005e-02 -1.118039347849525368e-03 1.550638897591687451e-02 -3.337611956185024958e-02 6.393094628064059648e-02 -6.424677762915133317e-02 3.735532128150019504e-02 -4.287076481315984372e-02 -3.755550969946309936e-02 2.876929393959264461e-02 -2.376889053053934540e-04 4.206275653635329487e-02 -5.390049274971006957e-03 -1.444288189026973236e-02 -6.692030214367886143e-02 1.960352045239985644e-02 -1.184637908534879117e-02 1.441712275718495459e-02 5.637453939475395998e-02 -1.560703222157289183e-02 -2.911377498683809673e-03 -1.053964283365503227e-02 5.578130000093812352e-02 -7.328597375784488832e-02 5.180275255804955847e-02 -3.988721064538100491e-02 1.025430620113948650e-02 3.937958399296416501e-02 8.441263345531139356e-03 -7.544861113556357302e-02 -1.853880524784819531e-02 4.232554487672944565e-02 1.430611110866370633e-02 -6.431007758874077163e-02 4.012022317632735896e-02 1.122083791081065172e-02 -2.116587450649625324e-03 3.952826375662019283e-03 -3.998815513773630592e-02 -2.392348089903565886e-02 -1.365712427731626682e-02 -3.049754265399288317e-02 7.651299089701756040e-02 4.248454640320166280e-03 6.522400769291193667e-02 -1.033959376520625709e-02 1.510400522450161716e-02 -4.635296576278707253e-02 2.440292751108407831e-03 7.099318729772401658e-03 -2.365699304904779129e-02 1.419139496506970771e-02 -2.670306119083364071e-02 -1.582581904358257990e-02 5.870225042322452930e-02 -9.560105499760545829e-04 -2.900635030465633854e-02 2.268016355323318467e-02 3.204348860849508263e-02 5.318026501649666948e-02 -2.266473785902939700e-02 6.910124270115394762e-02 3.924761785742291592e-02 -5.320744419835225086e-02 -1.404289505462050225e-02 -2.245313577118226295e-02 6.831983369690472485e-02 -7.046457643273840166e-02 3.105405825345030051e-03 -5.277695544676917934e-03 2.406877089083056878e-02 2.686064026112720826e-02 1.850942181362093264e-02 3.849812024925867993e-02 -2.483067071599982800e-02 2.859844060468467661e-02
2.707984959224033969e-02 -3.561447496208871872e-03 -1.708914490179934756e-02 -4.393367208249288058e-03 5.323533190956451777e-02 5.293167746989291961e-02 -1.779253005989732406e-02 -1.658535486577247722e-03 5.889896995682897263e-02 -1.803968672531707645e-02 2.118976472381818230e-02 2.021012866105448280e-02 -8.254410054797139268e-03 -1.284176103827302899e-02 1.225084449923478057e-02 -4.222762016919198724e-02 7.915942758542368271e-03 3.742804509607822183e-02 3.643430198224260896e-02 9.211831700343082324e-03 -4.934155569809056674e-03 -4.280634048112131468e-02 1.181397179377822494e-02 2.130238329676525585e-02 3.553770910975469904e-02 3.873011970066229936e-02 -1.478037261213463807e-02 -1.396970673269396987e-02 3.919077330949433113e-02 -1.982320840490675931e-02 2.401874999504334876e-02 -2.307746783098942739e-02 2.040871160150054334e-02 -5.137733002911119146e-02 -3.677848142592693437e-02 8.695952103028722555e-03 -7.195688632237959292e-02 -2.887273832944842536e-02 1.193693747072463972e-02 -2.279341974400336118e-02 -4.512511124584683148e-02 3.857287494139098171e-03 -7.425019592011884717e-02 1.206795000629233908e-02 -1.375226703016850169e-02 1.964079483074953475e-02 4.234885093052926514e-02 3.264905066994097660e-02 1.152499073702134384e-02 8.720808457773806741e-03 4.893471114579009407e-02 -7.915024096511195928e-02 1.934103728487867116e-02 -1.263336858512886969e-02 -2.561360987551699817e-02 -1.029251180790947094e-02 4.010645620006270465e-03 8.816845171561223798e-03 5.527177874443974653e-02 3.447417286564748856e-02 3.807901978757811251e-02 3.750189957801110252e-02 4.574923173507362828e-02 -1.881243149287246605e-02 1.805635784534175697e-02 -2.768472012442964748e-03 2.193214985586404778e-03 -1.719716514589485212e-02 -4.143116603417429378e-03 1.498707501636921402e-02 2.158072643295996448e-02 4.955922850239856577e-03 -3.835058176514166695e-02 -5.219528952656031506e-02 -4.816180976897069949e-02 2.188846883544459318e-02 3.159497247807159515e-02 3.306041442343875258e-02 -3.844686409103171415e-02 -4.733227235393540344e-02 -5.912794565029049453e-03 1.257730196470718646e-02 4.201468093924157904e-02 -2.358417757725528655e-02 5.556774693899897005e-02 1.801872978587852961e-02 -4.988503981313349711e-02 4.237556980113261346e-02 -9.360771983625636172e-03 -3.951518123207597120e-03 8.399406060854243405e-02 1.280612798456821390e-02 8.539047358401035542e-03 -1.352127288639831670e-02 -3.533906525210483290e-02 1.203800357553842099e-02 1.899436932869496414e-02 -9.773251705755686691e-03 1.555955694460026953e-03 -1.463200296259870199e-02 2.249597228695731851e-02 5.769183452625734065e-02 1.806795346411145184e-02 -1.914827644228839568e-02 1.446206555091163366e-02 -7.586449332455809727e-03 1.004649230930299876e-02 3.887126402912723794e-02 -3.676344116129540152e-02 4.248440733991233273e-03 -1.877811875891014642e-02 -1.521586467351019809e-02 -3.665160223217529736e-03 1.181528616974535269e-02 -2.115990160973433079e-02 4.966073110787485624e-03 -1.263688023626027487e-02 -3.460142375634449319e-02 5.775060932161751176e-02 4.023089489075550029e-02 1.148431743144844724e-02 -2.394272472716399078e-02 -7.167008591816242946e-02 2.013779714896287917e-02 -3.985286319880153305e-02 -1.406955774776951808e-02 -1.515396448182286526e-02 5.538144209433332708e-03 -7.798529495571781753e-03 -2.083052845354359597e-02 -1.318643371861578061e-02 3.644276388546374007e-02 -3.184772256765962956e-02 5.673802807628192113e-02 -3.651632478080295285e-02 3.627855051086427418e-02 -8.566027190930668167e-02 -1.513834533157308766e-02 -7.498343666050061307e-02 -2.705788421422679682e-02 -2.300237293783629483e-03 5.055463000111170419e-02 3.429224498868938681e-02 -5.216341394164208424e-03 -4.911708520909788961e-02 2.645511035132532864e-03 -7.850737736446122828e-03 -4.803871156128142889e-03 -9.238540109724417693e-02 2.992672164703469653e-02
9.609033607041527619e-03 2.475435732223014995e-02 -6.724582131268302954e-02 4.024546946379602141e-02 4.181566618558751197e-02 -1.295885620530854918e-02 -2.998347664696504947e-02 5.575439968730568378e-04 -1.870352945411521070e-02 -4.634040930871408462e-03 -8.435552179658694846e-03 1.882036296147019533e-02 4.051248762269382686e-02 7.839274978459357182e-03 -3.167790329338639882e-02 -1.973709137387564053e-02 8.164430259836395753e-03 -1.896428540717335492e-02 -3.287130573417165399e-03 2.155156790299571704e-02 2.191407243842606947e-02 1.363169150741707671e-02 -3.089809746159034864e-02 1.325619786034985641e-02 -1.338637198090651334e-02 4.676373065580675253e-02 -1.841764587094961089e-02 -1.642400138427094897e-02 -1.183050742298723951e-02 8.266354796173876890e-03 -2.890543188700522154e-02 4.136426283981031043e-02 4.770728437456707265e-03 1.602821787044305876e-02 4.293843910993443147e-02 6.340414165960917003e-02 1.154843382979420761e-02 1.214077163706752532e-02 8.455402756015348298e-03 2.346838352279357123e-02 4.839254023141516953e-02 -4.339547089956519166e-02 5.526315572060080256e-03 2.352213778645384154e-02 7.183111343409807892e-02 -2.441908961996963612e-02 -2.820902366869511291e-02 2.819688127625762791e-02 -2.990195553443131260e-02 -5.007433416876136412e-03 2.152951867700829414e-02 -2.147553655739752737e-02 -2.211396787548187623e-02 -4.280511249975415232e-03 -1.254981099471775760e-02 1.759516922458979546e-02 2.658769042489559850e-02 -4.698081387492573924e-02 -3.796752786679840654e-03 -2.505805511456853790e-02 -4.225668577730383457e-02 5.252397009245119569e-02 2.810410991580186355e-02 1.960591101775338921e-02 -2.813523914893677549e-02 -5.098597967016070542e-02 -6.820595742233440985e-03 4.795359326397537897e-02 4.373652711296467654e-02 1.085256079823164639e-02 -4.635251118503848182e-03 5.701446200820210058e-03 2.947056010729604339e-02 -5.182543583997709785e-02 3.036658515517633161e-02 -6.970148021006121984e-03 7.768335429247862425e-03 -2.881916474386061241e-03 -8.727020347487411678e-02 1.288095369555610978e-02 -3.283748178029522596e-02 2.936943129393116900e-03 2.757509902139191477e-02 3.224013442385192940e-02 1.859407226569712718e-02 5.600267470599534086e-02 3.861690395218553284e-02 -7.204664464343237852e-03 -1.519690061636388978e-02 7.259136150258189979e-02 -9.011788194544786273e-03 1.932216594563539169e-02 2.594290537984150768e-02 -2.632135146656571986e-02 5.621535916586505033e-02 -1.552338933269186393e-02 5.981400625585101688e-02 -1.316576360203088741e-02 -6.803779445180776174e-03 6.210060177511176650e-03 -3.221511733363201235e-02 1.966831583444058826e-02 -2.631069781910555516e-02 2.145845951190568021e-02 2.293432114008494421e-02 -2.467741389916690287e-02 1.364592082875471998e-02 -3.903487912890707401e-02 -3.622612753700894112e-02 2.233849486111150889e-02 2.352906618612666395e-02 -1.821500699420309718e-02 -3.787087886459696712e-02 8.032573812395987778e-02 1.162873333441919290e-03 1.999090215046676888e-02 -3.692776586951184575e-02 3.507259315897849096e-03 -4.302629341765494900e-03 -5.218110796280503970e-03 -8.451634811038055695e-03 -9.122972319627787804e-03 -2.984221801056089265e-02 -4.741073283412343409e-02 -2.632518681689108644e-02 -2.956311489085336128e-02 -1.527814408236414200e-02 5.427380764215280345e-03 2.293377725527861836e-03 -5.233223206354098433e-02 -1.429036725190249539e-02 1.591089936978341834e-02 -3.724955107085894945e-02 1.902584949095555492e-02 1.500286620577077033e-02 1.187528743711551045e-02 -4.751605878234867880e-02 -2.239289408284746499e-02 -6.218430124622314342e-02 -2.253685746945365692e-02 -1.848298852462099129e-02 -8.314151163795949206e-02 1.270578242656502342e-02 -6.444561858817073052e-02 9.718306826731602788e-03 -5.738578771771925963e-02 -2.398609230115882063e-02 -2.790743418371935056e-02 4.773326064533524836e-03 5.298160862224240986e-02
